{"learner":{"attributes":{"scikit_learn":"{\"_estimator_type\": \"regressor\"}"},"feature_names":["unit_price","discount"],"feature_types":["float","int"],"gradient_booster":{"model":{"gbtree_model_param":{"num_parallel_tree":"1","num_trees":"100"},"iteration_indptr":[0,1,2,3,4,5,6,7,8,9,10,11,12,13,14,15,16,17,18,19,20,21,22,23,24,25,26,27,28,29,30,31,32,33,34,35,36,37,38,39,40,41,42,43,44,45,46,47,48,49,50,51,52,53,54,55,56,57,58,59,60,61,62,63,64,65,66,67,68,69,70,71,72,73,74,75,76,77,78,79,80,81,82,83,84,85,86,87,88,89,90,91,92,93,94,95,96,97,98,99,100],"tree_info":[0,0,0,0,0,0,0,0,0,0,0,0,0,0,0,0,0,0,0,0,0,0,0,0,0,0,0,0,0,0,0,0,0,0,0,0,0,0,0,0,0,0,0,0,0,0,0,0,0,0,0,0,0,0,0,0,0,0,0,0,0,0,0,0,0,0,0,0,0,0,0,0,0,0,0,0,0,0,0,0,0,0,0,0,0,0,0,0,0,0,0,0,0,0,0,0,0,0,0,0],"trees":[{"base_weights":[-0E0,-5.311076E-1,2.8179264E0,-4.7564473E-2,-3.2253116E-1,2.283018E0,6.528341E-1,2.542444E0,-2.9729167E-1,1.9309496E0,5.028462E-1,2.4439791E-1,-3.1024727E-1],"categories":[],"categories_nodes":[],"categories_segments":[],"categories_sizes":[],"default_left":[0,0,0,0,0,0,0,0,0,0,0,0,0],"id":0,"left_children":[1,3,5,-1,-1,7,-1,9,-1,11,-1,-1,-1],"loss_changes":[1.1975974E4,9.6755725E2,2.4156064E3,0E0,0E0,1.5208574E3,0E0,1.5366538E3,0E0,2.2166055E3,0E0,0E0,0E0],"parents":[2147483647,0,0,1,1,2,2,5,5,7,7,9,9],"right_children":[2,4,6,-1,-1,8,-1,10,-1,12,-1,-1,-1],"split_conditions":[1.1E1,9E0,4.8E1,-4.7564473E-2,-3.2253116E-1,4.5E1,6.528341E-1,3.8E1,-2.9729167E-1,3.6E1,5.028462E-1,2.4439791E-1,-3.1024727E-1],"split_indices":[1,1,1,0,0,1,0,1,0,1,0,0,0],"split_type":[0,0,0,0,0,0,0,0,0,0,0,0,0],"sum_hessian":[8E3,6.732E3,1.268E3,6.601E3,1.31E2,1.112E3,1.56E2,1.062E3,5E1,8.57E2,2.05E2,7.8E2,7.7E1],"tree_param":{"num_deleted":"0","num_feature":"2","num_nodes":"13","size_leaf_vector":"1"}},{"base_weights":[-0E0,-4.7820032E-1,2.5367582E0,-4.280874E-2,-2.9052237E-1,2.0539432E0,5.879665E-1,2.2886105E0,-2.681454E-1,1.7366122E0,4.5280567E-1,2.1998937E-1,-2.7962026E-1],"categories":[],"categories_nodes":[],"categories_segments":[],"categories_sizes":[],"default_left":[0,0,0,0,0,0,0,0,0,0,0,0,0],"id":1,"left_children":[1,3,5,-1,-1,7,-1,9,-1,11,-1,-1,-1],"loss_changes":[9.705867E3,7.843252E2,1.9567617E3,0E0,0E0,1.2390215E3,0E0,1.2435391E3,0E0,1.8019624E3,0E0,0E0,0E0],"parents":[2147483647,0,0,1,1,2,2,5,5,7,7,9,9],"right_children":[2,4,6,-1,-1,8,-1,10,-1,12,-1,-1,-1],"split_conditions":[1.1E1,9E0,4.8E1,-4.280874E-2,-2.9052237E-1,4.5E1,5.879665E-1,3.8E1,-2.681454E-1,3.6E1,4.5280567E-1,2.1998937E-1,-2.7962026E-1],"split_indices":[1,1,1,0,0,1,0,1,0,1,0,0,0],"split_type":[0,0,0,0,0,0,0,0,0,0,0,0,0],"sum_hessian":[8E3,6.732E3,1.268E3,6.601E3,1.31E2,1.112E3,1.56E2,1.062E3,5E1,8.57E2,2.05E2,7.8E2,7.7E1],"tree_param":{"num_deleted":"0","num_feature":"2","num_nodes":"13","size_leaf_vector":"1"}},{"base_weights":[-0E0,3.0471063E-1,-3.1408188E-1,8.198168E-1,-4.9388954E-1,1.8005013E0,5.9785783E-1,-3.1919962E-1,-1.9281681E-1,2.632758E-1,1.5732929E-1,8.072856E-2,1.415109E0,-8.1546944E-1,4.639963E-1,2.0727782E-2,-3.119451E-1,1.2252865E-1,3.34634E-1,-2.7611544E-2,-3.1343582E-1,9.692135E-2,1.6486207E-2],"categories":[],"categories_nodes":[],"categories_segments":[],"categories_sizes":[],"default_left":[0,0,0,0,0,0,0,0,0,0,0,0,0,0,0,0,0,0,0,0,0,0,0],"id":2,"left_children":[1,3,-1,5,7,9,11,-1,13,-1,-1,15,17,19,21,-1,-1,-1,-1,-1,-1,-1,-1],"loss_changes":[7.661475E3,3.0041523E3,0E0,9.4183765E2,2.2831035E3,1.071543E2,1.5198997E3,0E0,1.0553457E3,0E0,0E0,8.7584607E2,4.6341138E2,1.6259619E3,1.7650232E2,0E0,0E0,0E0,0E0,0E0,0E0,0E0,0E0],"parents":[2147483647,0,0,1,1,3,3,4,4,5,5,6,6,8,8,11,11,12,12,13,13,14,14],"right_children":[2,4,-1,6,8,10,12,-1,14,-1,-1,16,18,20,22,-1,-1,-1,-1,-1,-1,-1,-1],"split_conditions":[1.8643E2,1.2017E2,-3.1408188E-1,4.249E1,1.267E2,3.152E1,8.834E1,-3.1919962E-1,1.4629E2,2.632758E-1,1.5732929E-1,8.613E1,1.2E2,1.4335E2,1.5511E2,2.0727782E-2,-3.119451E-1,1.2252865E-1,3.34634E-1,-2.7611544E-2,-3.1343582E-1,9.692135E-2,1.6486207E-2],"split_indices":[0,0,0,0,0,0,0,0,0,0,0,0,0,0,0,0,0,0,0,0,0,0,0],"split_type":[0,0,0,0,0,0,0,0,0,0,0,0,0,0,0,0,0,0,0,0,0,0,0],"sum_hessian":[8E3,7.293E3,7.07E2,4.441E3,2.852E3,8.1E2,3.631E3,2.82E2,2.57E3,1.62E2,6.48E2,2.232E3,1.399E3,1.327E3,1.243E3,2.151E3,8.1E1,1.28E3,1.19E2,1.081E3,2.46E2,4.49E2,7.94E2],"tree_param":{"num_deleted":"0","num_feature":"2","num_nodes":"23","size_leaf_vector":"1"}},{"base_weights":[-0E0,2.7451932E-1,-2.827181E-1,7.386427E-1,-4.446922E-1,1.6222031E0,5.383932E-1,-2.016975E0,-0E0,2.3710977E-1,1.4162062E-1,-9.060832E-1,8.058166E-1,-2.8739247E-1,-1.2834483E0,1.7037062E-1,-1.8028766E-1,7.797273E-2,-1.7754868E-1,7.123724E-2,3.0144948E-1,1.2911211E-1,-3.0582383E-1,-3.033114E-1,1.5874607E-2],"categories":[],"categories_nodes":[],"categories_segments":[],"categories_sizes":[],"default_left":[0,0,0,0,0,0,0,0,0,0,0,0,0,0,0,0,0,0,0,0,0,0,0,0,0],"id":3,"left_children":[1,3,-1,5,7,9,11,13,15,-1,-1,17,19,-1,21,-1,23,-1,-1,-1,-1,-1,-1,-1,-1],"loss_changes":[6.208692E3,2.4380261E3,0E0,7.6345483E2,1.9947058E3,8.388208E1,1.4027213E3,3.5012427E2,6.836867E2,0E0,0E0,8.350369E2,5.9440173E2,0E0,1.6071737E3,0E0,1.9762076E3,0E0,0E0,0E0,0E0,0E0,0E0,0E0,0E0],"parents":[2147483647,0,0,1,1,3,3,4,4,5,5,6,6,7,7,8,8,11,11,12,12,14,14,16,16],"right_children":[2,4,-1,6,8,10,12,14,16,-1,-1,18,20,-1,22,-1,24,-1,-1,-1,-1,-1,-1,-1,-1],"split_conditions":[1.8643E2,1.2017E2,-2.827181E-1,4.249E1,1.3124E2,3.152E1,5.347E1,1.267E2,1.3893E2,2.3710977E-1,1.4162062E-1,4.664E1,1.2E2,-2.8739247E-1,1.3107E2,1.7037062E-1,1.3964E2,7.797273E-2,-1.7754868E-1,7.123724E-2,3.0144948E-1,1.2911211E-1,-3.0582383E-1,-3.033114E-1,1.5874607E-2],"split_indices":[0,0,0,0,0,0,0,0,0,0,0,0,0,0,0,0,0,0,0,0,0,0,0,0,0],"split_type":[0,0,0,0,0,0,0,0,0,0,0,0,0,0,0,0,0,0,0,0,0,0,0,0,0],"sum_hessian":[8E3,7.293E3,7.07E2,4.441E3,2.852E3,8.1E2,3.631E3,6.28E2,2.224E3,1.62E2,6.48E2,5.61E2,3.07E3,2.82E2,3.46E2,2.12E2,2.012E3,1.87E2,3.74E2,2.951E3,1.19E2,1.39E2,2.07E2,2.16E2,1.796E3],"tree_param":{"num_deleted":"0","num_feature":"2","num_nodes":"25","size_leaf_vector":"1"}},{"base_weights":[-0E0,2.4748848E-1,-2.5448617E-1,6.6560066E-1,-4.0007606E-1,1.4616828E0,4.8490453E-1,-1.8160152E0,-0E0,2.3646979E-1,1.3158107E-1,-7.074382E-1,7.469324E-1,-2.5875476E-1,-1.152731E0,1.5341355E-1,-1.6190472E-1,7.021692E-2,-1.3024463E-1,3.5444792E-2,1.1838849E-1,1.16293125E-1,-2.7538848E-1,-2.7312005E-1,1.4288052E-2],"categories":[],"categories_nodes":[],"categories_segments":[],"categories_sizes":[],"default_left":[0,0,0,0,0,0,0,0,0,0,0,0,0,0,0,0,0,0,0,0,0,0,0,0,0],"id":4,"left_children":[1,3,-1,5,7,9,11,13,15,-1,-1,17,19,-1,21,-1,23,-1,-1,-1,-1,-1,-1,-1,-1],"loss_changes":[5.0319976E3,1.9778057E3,0E0,6.1880225E2,1.6177327E3,6.691223E1,1.135658E3,2.815022E2,5.5407776E2,0E0,0E0,5.5041284E2,4.9611597E2,0E0,1.3056948E3,0E0,1.6026202E3,0E0,0E0,0E0,0E0,0E0,0E0,0E0,0E0],"parents":[2147483647,0,0,1,1,3,3,4,4,5,5,6,6,7,7,8,8,11,11,12,12,14,14,16,16],"right_children":[2,4,-1,6,8,10,12,14,16,-1,-1,18,20,-1,22,-1,24,-1,-1,-1,-1,-1,-1,-1,-1],"split_conditions":[1.8643E2,1.2017E2,-2.5448617E-1,4.249E1,1.3124E2,3.092E1,5.533E1,1.267E2,1.3893E2,2.3646979E-1,1.3158107E-1,4.664E1,8.834E1,-2.5875476E-1,1.3107E2,1.5341355E-1,1.3964E2,7.021692E-2,-1.3024463E-1,3.5444792E-2,1.1838849E-1,1.16293125E-1,-2.7538848E-1,-2.7312005E-1,1.4288052E-2],"split_indices":[0,0,0,0,0,0,0,0,0,0,0,0,0,0,0,0,0,0,0,0,0,0,0,0,0],"split_type":[0,0,0,0,0,0,0,0,0,0,0,0,0,0,0,0,0,0,0,0,0,0,0,0,0],"sum_hessian":[8E3,7.293E3,7.07E2,4.441E3,2.852E3,8.1E2,3.631E3,6.28E2,2.224E3,1.01E2,7.09E2,6.47E2,2.984E3,2.82E2,3.46E2,2.12E2,2.012E3,1.87E2,4.6E2,1.585E3,1.399E3,1.39E2,2.07E2,2.16E2,1.796E3],"tree_param":{"num_deleted":"0","num_feature":"2","num_nodes":"25","size_leaf_vector":"1"}},{"base_weights":[-0E0,-3.7430462E-1,2.448787E0,-4.1214344E-1,8.0996096E-1,1.9859635E0,5.0432605E-1,-3.750912E-2,-2.1864365E-1,1.6110067E-1,-1.20019786E-1,2.228409E0,-1.9309369E-1,1.6948354E0,3.8578346E-1,2.211361E-1,-2.0064087E-1],"categories":[],"categories_nodes":[],"categories_segments":[],"categories_sizes":[],"default_left":[0,0,0,0,0,0,0,0,0,0,0,0,0,0,0,0,0],"id":5,"left_children":[1,3,5,7,9,11,-1,-1,-1,-1,-1,13,-1,15,-1,-1,-1],"loss_changes":[7.346522E3,3.0730066E2,1.196125E3,4.1620203E2,3.3935898E2,8.6859717E2,0E0,0E0,0E0,0E0,0E0,6.8302637E2,0E0,1.2529718E3,0E0,0E0,0E0],"parents":[2147483647,0,0,1,1,2,2,3,3,4,4,5,5,11,11,13,13],"right_children":[2,4,6,8,10,12,-1,-1,-1,-1,-1,14,-1,16,-1,-1,-1],"split_conditions":[2E1,1.1E1,4.8E1,9E0,1.5E1,4.5E1,5.0432605E-1,-3.750912E-2,-2.1864365E-1,1.6110067E-1,-1.20019786E-1,3.8E1,-1.9309369E-1,3.6E1,3.8578346E-1,2.211361E-1,-2.0064087E-1],"split_indices":[1,1,1,1,1,1,0,0,0,0,0,1,0,1,0,0,0],"split_type":[0,0,0,0,0,0,0,0,0,0,0,0,0,0,0,0,0],"sum_hessian":[8E3,6.938E3,1.062E3,6.732E3,2.06E2,9.06E2,1.56E2,6.601E3,1.31E2,1.51E2,5.5E1,8.56E2,5E1,6.51E2,2.05E2,5.74E2,7.7E1],"tree_param":{"num_deleted":"0","num_feature":"2","num_nodes":"17","size_leaf_vector":"1"}},{"base_weights":[-0E0,-2.6164085E-1,2.912847E0,-3.7111574E-1,9.3270445E-1,2.3807423E0,4.5421463E-1,-3.3758786E-2,-1.969449E-1,1.6879905E0,-3.5638377E-1,2.859556E0,-1.7416292E-1,9.78852E-1,2.8001133E-1,4.1995388E-1,1.9949743E0,1.4509657E-1,5.0873768E-2,-1.8083401E-1,3.4739235E-1],"categories":[],"categories_nodes":[],"categories_segments":[],"categories_sizes":[],"default_left":[0,0,0,0,0,0,0,0,0,0,0,0,0,0,0,0,0,0,0,0,0],"id":6,"left_children":[1,3,5,7,9,11,-1,-1,-1,13,-1,15,-1,17,-1,-1,19,-1,-1,-1,-1],"loss_changes":[6.1109067E3,9.545722E2,4.930166E2,3.3707782E2,2.0555283E3,1.0129524E3,0E0,0E0,0E0,3.7272156E2,0E0,4.5680542E2,0E0,5.2241577E1,0E0,0E0,1.6147872E3,0E0,0E0,0E0,0E0],"parents":[2147483647,0,0,1,1,2,2,3,3,4,4,5,5,9,9,11,11,13,13,16,16],"right_children":[2,4,6,8,10,12,-1,-1,-1,14,-1,16,-1,18,-1,-1,20,-1,-1,-1,-1],"split_conditions":[3.3E1,1.1E1,4.8E1,9E0,2.9E1,4.5E1,4.5421463E-1,-3.3758786E-2,-1.969449E-1,2.1E1,-3.5638377E-1,3.6E1,-1.7416292E-1,1.5E1,2.8001133E-1,4.1995388E-1,3.8E1,1.4509657E-1,5.0873768E-2,-1.8083401E-1,3.4739235E-1],"split_indices":[1,1,1,1,1,1,0,0,0,1,0,1,0,1,0,0,1,0,0,0,0],"split_type":[0,0,0,0,0,0,0,0,0,0,0,0,0,0,0,0,0,0,0,0,0],"sum_hessian":[8E3,7.34E3,6.6E2,6.732E3,6.08E2,5.04E2,1.56E2,6.601E3,1.31E2,5.23E2,8.5E1,4.54E2,5E1,3.26E2,1.97E2,1.72E2,2.82E2,1.51E2,1.75E2,7.7E1,2.05E2],"tree_param":{"num_deleted":"0","num_feature":"2","num_nodes":"21","size_leaf_vector":"1"}},{"base_weights":[-0E0,2.1238548E-1,-2.1796146E-1,5.7761526E-1,-3.5283118E-1,1.2119385E0,4.141732E-1,-1.5945832E0,-0E0,2.0490237E-1,1.0905885E-1,-1.4771737E0,5.7669157E-1,-2.3013294E-1,-9.84774E-1,-4.8033464E-1,3.7624922E-1,4.9216267E-2,-2.6737174E-1,3.1229156E-1,5.0874393E-2,1.03734195E-1,-2.389156E-1,2.6336823E-2,-2.7349296E-1,8.284356E-2,1.0724284E-2],"categories":[],"categories_nodes":[],"categories_segments":[],"categories_sizes":[],"default_left":[0,0,0,0,0,0,0,0,0,0,0,0,0,0,0,0,0,0,0,0,0,0,0,0,0,0,0],"id":7,"left_children":[1,3,-1,5,7,9,11,13,15,-1,-1,17,19,-1,21,23,25,-1,-1,-1,-1,-1,-1,-1,-1,-1,-1],"loss_changes":[3.692524E3,1.5081808E3,0E0,4.4376172E2,1.2441858E3,5.7486816E1,1.0818116E3,2.359591E2,4.0267334E2,0E0,0E0,6.7349695E2,5.2800977E2,0E0,1.0014152E3,1.6720032E3,1.418758E2,0E0,0E0,0E0,0E0,0E0,0E0,0E0,0E0,0E0,0E0],"parents":[2147483647,0,0,1,1,3,3,4,4,5,5,6,6,7,7,8,8,11,11,12,12,14,14,15,15,16,16],"right_children":[2,4,-1,6,8,10,12,14,16,-1,-1,18,20,-1,22,24,26,-1,-1,-1,-1,-1,-1,-1,-1,-1,-1],"split_conditions":[1.8643E2,1.2017E2,-2.1796146E-1,4.475E1,1.3124E2,3.092E1,5E1,1.267E2,1.4629E2,2.0490237E-1,1.0905885E-1,4.664E1,5.148E1,-2.3013294E-1,1.3107E2,1.4335E2,1.5511E2,4.9216267E-2,-2.6737174E-1,3.1229156E-1,5.0874393E-2,1.03734195E-1,-2.389156E-1,2.6336823E-2,-2.7349296E-1,8.284356E-2,1.0724284E-2],"split_indices":[0,0,0,0,0,0,0,0,0,0,0,0,0,0,0,0,0,0,0,0,0,0,0,0,0,0,0],"split_type":[0,0,0,0,0,0,0,0,0,0,0,0,0,0,0,0,0,0,0,0,0,0,0,0,0,0,0],"sum_hessian":[8E3,7.293E3,7.07E2,4.441E3,2.852E3,8.96E2,3.545E3,6.28E2,2.224E3,1.01E2,7.95E2,2.75E2,3.27E3,2.82E2,3.46E2,9.81E2,1.243E3,1.01E2,1.74E2,8E1,3.19E3,1.39E2,2.07E2,7.35E2,2.46E2,4.49E2,7.94E2],"tree_param":{"num_deleted":"0","num_feature":"2","num_nodes":"27","size_leaf_vector":"1"}},{"base_weights":[-0E0,-2.3271099E-1,2.5982292E0,-3.2864064E-1,8.118327E-1,2.1249828E0,4.0402117E-1,-3.0074665E-2,-1.6455151E-1,1.4729356E0,-3.109443E-1,2.5369954E0,-1.3964038E-1,8.4147495E-1,2.4578582E-1,3.7223113E-1,1.7681026E0,1.2289093E-1,4.452733E-2,-1.5599366E-1,3.0681947E-1],"categories":[],"categories_nodes":[],"categories_segments":[],"categories_sizes":[],"default_left":[0,0,0,0,0,0,0,0,0,0,0,0,0,0,0,0,0,0,0,0,0],"id":8,"left_children":[1,3,5,7,9,11,-1,-1,-1,13,-1,15,-1,17,-1,-1,19,-1,-1,-1,-1],"loss_changes":[4.8598228E3,7.310231E2,3.808379E2,2.2736499E2,1.5669662E3,7.476306E2,0E0,0E0,0E0,2.9083496E2,0E0,3.5319263E2,0E0,3.2906174E1,0E0,0E0,1.2443408E3,0E0,0E0,0E0,0E0],"parents":[2147483647,0,0,1,1,2,2,3,3,4,4,5,5,9,9,11,11,13,13,16,16],"right_children":[2,4,6,8,10,12,-1,-1,-1,14,-1,16,-1,18,-1,-1,20,-1,-1,-1,-1],"split_conditions":[3.3E1,1.1E1,4.8E1,9E0,2.9E1,4.5E1,4.0402117E-1,-3.0074665E-2,-1.6455151E-1,2.1E1,-3.109443E-1,3.6E1,-1.3964038E-1,1.5E1,2.4578582E-1,3.7223113E-1,3.8E1,1.2289093E-1,4.452733E-2,-1.5599366E-1,3.0681947E-1],"split_indices":[1,1,1,1,1,1,0,0,0,1,0,1,0,1,0,0,1,0,0,0,0],"split_type":[0,0,0,0,0,0,0,0,0,0,0,0,0,0,0,0,0,0,0,0,0],"sum_hessian":[8E3,7.34E3,6.6E2,6.732E3,6.08E2,5.04E2,1.56E2,6.601E3,1.31E2,5.23E2,8.5E1,4.54E2,5E1,3.26E2,1.97E2,1.72E2,2.82E2,1.51E2,1.75E2,7.7E1,2.05E2],"tree_param":{"num_deleted":"0","num_feature":"2","num_nodes":"21","size_leaf_vector":"1"}},{"base_weights":[-0E0,-2.0931631E-1,2.3395975E0,-2.9595408E-1,7.3245937E-1,1.9112636E0,3.6387637E-1,-2.7067661E-2,-1.4822103E-1,1.3302473E0,-2.8021145E-1,2.2844455E0,-1.2595014E-1,7.6089746E-1,2.2133139E-1,3.3522317E-1,1.5882918E0,1.1068268E-1,4.0099874E-2,-1.4059429E-1,2.7628645E-1],"categories":[],"categories_nodes":[],"categories_segments":[],"categories_sizes":[],"default_left":[0,0,0,0,0,0,0,0,0,0,0,0,0,0,0,0,0,0,0,0,0],"id":9,"left_children":[1,3,5,7,9,11,-1,-1,-1,13,-1,15,-1,17,-1,-1,19,-1,-1,-1,-1],"loss_changes":[3.9397603E3,5.948285E2,3.0537622E2,1.8396259E2,1.2757805E3,6.106791E2,0E0,0E0,0E0,2.3202728E2,0E0,2.834917E2,0E0,2.5189255E1,0E0,0E0,1.0127495E3,0E0,0E0,0E0,0E0],"parents":[2147483647,0,0,1,1,2,2,3,3,4,4,5,5,9,9,11,11,13,13,16,16],"right_children":[2,4,6,8,10,12,-1,-1,-1,14,-1,16,-1,18,-1,-1,20,-1,-1,-1,-1],"split_conditions":[3.3E1,1.1E1,4.8E1,9E0,2.9E1,4.5E1,3.6387637E-1,-2.7067661E-2,-1.4822103E-1,2.1E1,-2.8021145E-1,3.6E1,-1.2595014E-1,1.5E1,2.2133139E-1,3.3522317E-1,3.8E1,1.1068268E-1,4.0099874E-2,-1.4059429E-1,2.7628645E-1],"split_indices":[1,1,1,1,1,1,0,0,0,1,0,1,0,1,0,0,1,0,0,0,0],"split_type":[0,0,0,0,0,0,0,0,0,0,0,0,0,0,0,0,0,0,0,0,0],"sum_hessian":[8E3,7.34E3,6.6E2,6.732E3,6.08E2,5.04E2,1.56E2,6.601E3,1.31E2,5.23E2,8.5E1,4.54E2,5E1,3.26E2,1.97E2,1.72E2,2.82E2,1.51E2,1.75E2,7.7E1,2.05E2],"tree_param":{"num_deleted":"0","num_feature":"2","num_nodes":"21","size_leaf_vector":"1"}},{"base_weights":[6.499021E-5,-2.4612698E-1,1.6165522E0,-2.6653323E-1,3.704983E-1,1.3162887E0,3.277205E-1,-2.4361307E-2,-1.3351122E-1,9.9687256E-2,-1.157705E-1,1.4723582E0,-1.13602094E-1,7.837709E-1,2.0570357E0,1.7076212E-1,-2.5251612E-1,3.0189463E-1,1.4264084E-1],"categories":[],"categories_nodes":[],"categories_segments":[],"categories_sizes":[],"default_left":[0,0,0,0,0,0,0,0,0,0,0,0,0,0,0,0,0,0,0],"id":10,"left_children":[1,3,5,7,9,11,-1,-1,-1,-1,-1,13,-1,15,17,-1,-1,-1,-1],"loss_changes":[3.1982295E3,8.637262E1,4.7979883E2,1.4879218E2,1.9769177E2,3.521726E2,0E0,0E0,0E0,0E0,0E0,3.1500928E2,0E0,1.2280907E3,2.2724646E2,0E0,0E0,0E0,0E0],"parents":[2147483647,0,0,1,1,2,2,3,3,4,4,5,5,11,11,13,13,14,14],"right_children":[2,4,6,8,10,12,-1,-1,-1,-1,-1,14,-1,16,18,-1,-1,-1,-1],"split_conditions":[2E1,1.1E1,4.8E1,9E0,1.5E1,4.5E1,3.277205E-1,-2.4361307E-2,-1.3351122E-1,9.9687256E-2,-1.157705E-1,3.3E1,-1.13602094E-1,2.9E1,3.6E1,1.7076212E-1,-2.5251612E-1,3.0189463E-1,1.4264084E-1],"split_indices":[1,1,1,1,1,1,0,0,0,0,0,1,0,1,1,0,0,0,0],"split_type":[0,0,0,0,0,0,0,0,0,0,0,0,0,0,0,0,0,0,0],"sum_hessian":[8E3,6.938E3,1.062E3,6.732E3,2.06E2,9.06E2,1.56E2,6.601E3,1.31E2,1.51E2,5.5E1,8.56E2,5E1,4.02E2,4.54E2,3.17E2,8.5E1,1.72E2,2.82E2],"tree_param":{"num_deleted":"0","num_feature":"2","num_nodes":"19","size_leaf_vector":"1"}},{"base_weights":[-0E0,-2.2168356E-1,1.4563805E0,-2.4005198E-1,3.2853994E-1,1.1849346E0,2.951572E-1,-2.1925557E-2,-1.2026123E-1,8.978413E-2,-1.04400195E-1,1.3267125E0,-1.0246463E-1,1.0390626E0,2.6409465E-1,1.3279024E-1,-1.0781253E-2],"categories":[],"categories_nodes":[],"categories_segments":[],"categories_sizes":[],"default_left":[0,0,0,0,0,0,0,0,0,0,0,0,0,0,0,0,0],"id":11,"left_children":[1,3,5,7,9,11,-1,-1,-1,-1,-1,13,-1,15,-1,-1,-1],"loss_changes":[2.5956772E3,6.9324646E1,3.8657056E2,1.2029761E2,1.6122346E2,2.8851587E2,0E0,0E0,0E0,0E0,0E0,2.8443542E2,0E0,2.4787207E2,0E0,0E0,0E0],"parents":[2147483647,0,0,1,1,2,2,3,3,4,4,5,5,11,11,13,13],"right_children":[2,4,6,8,10,12,-1,-1,-1,-1,-1,14,-1,16,-1,-1,-1],"split_conditions":[2E1,1.1E1,4.8E1,9E0,1.5E1,4.5E1,2.951572E-1,-2.1925557E-2,-1.2026123E-1,8.978413E-2,-1.04400195E-1,4.4E1,-1.0246463E-1,3.6E1,2.6409465E-1,1.3279024E-1,-1.0781253E-2],"split_indices":[1,1,1,1,1,1,0,0,0,0,0,1,0,1,0,0,0],"split_type":[0,0,0,0,0,0,0,0,0,0,0,0,0,0,0,0,0],"sum_hessian":[8E3,6.938E3,1.062E3,6.732E3,2.06E2,9.06E2,1.56E2,6.601E3,1.31E2,1.51E2,5.5E1,8.56E2,5E1,7.1E2,1.46E2,5.74E2,1.36E2],"tree_param":{"num_deleted":"0","num_feature":"2","num_nodes":"17","size_leaf_vector":"1"}},{"base_weights":[-0E0,-1.5608E-1,1.7459723E0,-1.2800387E-1,-2.4068275E-1,1.4390801E0,2.6582944E-1,-1.9968203E-1,1.4050237E0,1.7227894E0,-9.241907E-2,-2.1621653E-1,2.907844E-1,8.426734E-2,1.6910811E-1,2.5867742E-1,1.1532058E0,-1.9733345E-2,-1.0832622E-1,8.086478E-2,-9.41466E-2,-1.39732E-1,2.1618846E-1],"categories":[],"categories_nodes":[],"categories_segments":[],"categories_sizes":[],"default_left":[0,0,0,0,0,0,0,0,0,0,0,0,0,0,0,0,0,0,0,0,0,0,0],"id":12,"left_children":[1,3,5,7,-1,9,-1,11,13,15,-1,17,19,-1,-1,-1,21,-1,-1,-1,-1,-1,-1],"loss_changes":[2.1938389E3,4.3823807E2,1.4027051E2,7.8554974E2,0E0,3.4817163E2,0E0,5.5589874E1,2.4392334E1,1.8352783E2,0E0,9.721637E1,1.3152757E2,0E0,0E0,0E0,7.387295E2,0E0,0E0,0E0,0E0,0E0,0E0],"parents":[2147483647,0,0,1,1,2,2,3,3,5,5,7,7,8,8,9,9,11,11,12,12,16,16],"right_children":[2,4,6,8,-1,10,-1,12,14,16,-1,18,20,-1,-1,-1,22,-1,-1,-1,-1,-1,-1],"split_conditions":[3.3E1,2.9E1,4.8E1,2E1,-2.4068275E-1,4.5E1,2.6582944E-1,1.1E1,2.1E1,3.6E1,-9.241907E-2,9E0,1.5E1,8.426734E-2,1.6910811E-1,2.5867742E-1,3.8E1,-1.9733345E-2,-1.0832622E-1,8.086478E-2,-9.41466E-2,-1.39732E-1,2.1618846E-1],"split_indices":[1,1,1,1,0,1,0,1,1,1,0,1,1,0,0,0,1,0,0,0,0,0,0],"split_type":[0,0,0,0,0,0,0,0,0,0,0,0,0,0,0,0,0,0,0,0,0,0,0],"sum_hessian":[8E3,7.34E3,6.6E2,7.255E3,8.5E1,5.04E2,1.56E2,6.938E3,3.17E2,4.54E2,5E1,6.732E3,2.06E2,1.2E2,1.97E2,1.72E2,2.82E2,6.601E3,1.31E2,1.51E2,5.5E1,7.7E1,2.05E2],"tree_param":{"num_deleted":"0","num_feature":"2","num_nodes":"23","size_leaf_vector":"1"}},{"base_weights":[-0E0,-1.4048943E-1,1.5721445E0,-1.1505014E-1,-2.1689434E-1,1.2936724E0,2.3941587E-1,-1.7987822E-1,1.2684629E0,1.551247E0,-8.335838E-2,-1.9476233E-1,2.5681078E-1,7.591027E-2,1.5228271E-1,2.329592E-1,1.0346218E0,-1.77603E-2,-9.7575665E-2,7.283149E-2,-8.490006E-2,-1.2593795E-1,1.9467455E-1],"categories":[],"categories_nodes":[],"categories_segments":[],"categories_sizes":[],"default_left":[0,0,0,0,0,0,0,0,0,0,0,0,0,0,0,0,0,0,0,0,0,0,0],"id":13,"left_children":[1,3,5,7,-1,9,-1,11,13,15,-1,17,19,-1,-1,-1,21,-1,-1,-1,-1,-1,-1],"loss_changes":[1.7786442E3,3.5572403E2,1.1133264E2,6.401366E2,0E0,2.851729E2,0E0,4.4531143E1,1.72258E1,1.4690881E2,0E0,7.852443E1,1.0734017E2,0E0,0E0,0E0,6.014783E2,0E0,0E0,0E0,0E0,0E0,0E0],"parents":[2147483647,0,0,1,1,2,2,3,3,5,5,7,7,8,8,9,9,11,11,12,12,16,16],"right_children":[2,4,6,8,-1,10,-1,12,14,16,-1,18,20,-1,-1,-1,22,-1,-1,-1,-1,-1,-1],"split_conditions":[3.3E1,2.9E1,4.8E1,2E1,-2.1689434E-1,4.5E1,2.3941587E-1,1.1E1,2.1E1,3.6E1,-8.335838E-2,9E0,1.5E1,7.591027E-2,1.5228271E-1,2.329592E-1,3.8E1,-1.77603E-2,-9.7575665E-2,7.283149E-2,-8.490006E-2,-1.2593795E-1,1.9467455E-1],"split_indices":[1,1,1,1,0,1,0,1,1,1,0,1,1,0,0,0,1,0,0,0,0,0,0],"split_type":[0,0,0,0,0,0,0,0,0,0,0,0,0,0,0,0,0,0,0,0,0,0,0],"sum_hessian":[8E3,7.34E3,6.6E2,7.255E3,8.5E1,5.04E2,1.56E2,6.938E3,3.17E2,4.54E2,5E1,6.732E3,2.06E2,1.2E2,1.97E2,1.72E2,2.82E2,6.601E3,1.31E2,1.51E2,5.5E1,7.7E1,2.05E2],"tree_param":{"num_deleted":"0","num_feature":"2","num_nodes":"23","size_leaf_vector":"1"}},{"base_weights":[-0E0,1.6768475E-1,-1.717065E-1,4.7158653E-1,-3.020311E-1,9.6922565E-1,3.427501E-1,-2.0132966E-1,-1.0965842E-1,1.694596E-1,8.6249575E-2,-8.520116E-1,5.310809E-1,-5.2900445E-1,3.3005318E-1,-2.9438486E-2,-2.4029465E-1,4.6877272E-2,1.9761033E-1,-1.3941246E-2,-2.1930109E-1,6.924314E-2,1.1193965E-2],"categories":[],"categories_nodes":[],"categories_segments":[],"categories_sizes":[],"default_left":[0,0,0,0,0,0,0,0,0,0,0,0,0,0,0,0,0,0,0,0,0,0,0],"id":14,"left_children":[1,3,-1,5,7,9,11,-1,13,-1,-1,15,17,19,21,-1,-1,-1,-1,-1,-1,-1,-1],"loss_changes":[2.292499E3,1.0430381E3,0E0,2.713426E2,9.177593E2,4.241205E1,7.951301E2,0E0,4.762342E2,0E0,0E0,3.8398438E2,2.5112762E2,8.372905E2,9.0204025E1,0E0,0E0,0E0,0E0,0E0,0E0,0E0,0E0],"parents":[2147483647,0,0,1,1,3,3,4,4,5,5,6,6,8,8,11,11,12,12,13,13,14,14],"right_children":[2,4,-1,6,8,10,12,-1,14,-1,-1,16,18,20,22,-1,-1,-1,-1,-1,-1,-1,-1],"split_conditions":[1.8643E2,1.2017E2,-1.717065E-1,4.475E1,1.267E2,3.092E1,5.347E1,-2.0132966E-1,1.4629E2,1.694596E-1,8.6249575E-2,5.148E1,1.2E2,1.4335E2,1.5511E2,-2.9438486E-2,-2.4029465E-1,4.6877272E-2,1.9761033E-1,-1.3941246E-2,-2.1930109E-1,6.924314E-2,1.1193965E-2],"split_indices":[0,0,0,0,0,0,0,0,0,0,0,0,0,0,0,0,0,0,0,0,0,0,0],"split_type":[0,0,0,0,0,0,0,0,0,0,0,0,0,0,0,0,0,0,0,0,0,0,0],"sum_hessian":[8E3,7.293E3,7.07E2,4.441E3,2.852E3,8.96E2,3.545E3,2.82E2,2.57E3,1.01E2,7.95E2,4.75E2,3.07E3,1.327E3,1.243E3,3.55E2,1.2E2,2.951E3,1.19E2,1.081E3,2.46E2,4.49E2,7.94E2],"tree_param":{"num_deleted":"0","num_feature":"2","num_nodes":"23","size_leaf_vector":"1"}},{"base_weights":[-0E0,1.5089934E-1,-1.545601E-1,4.2470485E-1,-2.7195203E-1,2.57998E-1,7.796079E-1,-9.553624E-1,1.2461821E-1,5.4663E-1,-5.98105E-1,6.774662E-1,1.7801398E-1,-6.4794743E-1,-2.096287E-1,1.1073257E-1,-7.189087E-2,3.0141715E-2,9.656804E-2,-3.0889365E-1,2.9280497E-2,8.014905E-2,1.3347277E-2,-1.2516023E-1,1.09077014E-1,-1.9745976E-1,2.9791657E-2],"categories":[],"categories_nodes":[],"categories_segments":[],"categories_sizes":[],"default_left":[0,0,0,0,0,0,0,0,0,0,0,0,0,0,0,0,0,0,0,0,0,0,0,0,0,0,0],"id":15,"left_children":[1,3,-1,5,7,9,11,13,15,17,19,21,-1,23,-1,-1,25,-1,-1,-1,-1,-1,-1,-1,-1,-1,-1],"loss_changes":[1.8574178E3,8.4613525E2,0E0,2.5223279E2,7.8164716E2,7.517337E2,1.172923E2,3.419287E2,3.5745435E2,2.2183667E2,1.7131677E3,7.697034E1,0E0,8.856748E2,0E0,0E0,1.0657714E3,0E0,0E0,0E0,0E0,0E0,0E0,0E0,0E0,0E0,0E0],"parents":[2147483647,0,0,1,1,3,3,4,4,5,5,6,6,7,7,8,8,9,9,10,10,11,11,13,13,16,16],"right_children":[2,4,-1,6,8,10,12,14,16,18,20,22,-1,24,-1,-1,26,-1,-1,-1,-1,-1,-1,-1,-1,-1,-1],"split_conditions":[1.8643E2,1.2017E2,-1.545601E-1,8.834E1,1.3964E2,7.509E1,1.2E2,1.3893E2,1.4335E2,5.533E1,8E1,1.0774E2,1.7801398E-1,1.3124E2,-2.096287E-1,1.1073257E-1,1.4629E2,3.0141715E-2,9.656804E-2,-3.0889365E-1,2.9280497E-2,8.014905E-2,1.3347277E-2,-1.2516023E-1,1.09077014E-1,-1.9745976E-1,2.9791657E-2],"split_indices":[0,0,0,0,0,0,0,0,0,0,0,0,0,0,0,0,0,0,0,0,0,0,0,0,0,0,0],"split_type":[0,0,0,0,0,0,0,0,0,0,0,0,0,0,0,0,0,0,0,0,0,0,0,0,0,0,0],"sum_hessian":[8E3,7.293E3,7.07E2,4.441E3,2.852E3,3.042E3,1.399E3,1.056E3,1.796E3,2.284E3,7.58E2,1.28E3,1.19E2,8.4E2,2.16E2,3.07E2,1.489E3,1.457E3,8.27E2,2.02E2,5.56E2,1.027E3,2.53E2,6.28E2,2.12E2,2.46E2,1.243E3],"tree_param":{"num_deleted":"0","num_feature":"2","num_nodes":"27","size_leaf_vector":"1"}},{"base_weights":[-0E0,-1.2232193E-1,1.3727427E0,-1.0095828E-1,-1.8071167E-1,1.134387E0,2.06699E-1,-1.5481706E-1,1.043152E0,1.3423638E0,-5.4725688E-2,-1.6727616E-1,2.0287345E-1,6.069107E-2,1.2539704E-1,1.9821392E-1,9.1118526E-1,-1.5627112E-2,-6.4067066E-2,5.9412677E-2,-6.8415105E-2,-9.066663E-2,1.6436185E-1],"categories":[],"categories_nodes":[],"categories_segments":[],"categories_sizes":[],"default_left":[0,0,0,0,0,0,0,0,0,0,0,0,0,0,0,0,0,0,0,0,0,0,0],"id":16,"left_children":[1,3,5,7,-1,9,-1,11,13,15,-1,17,19,-1,-1,-1,21,-1,-1,-1,-1,-1,-1],"loss_changes":[1.3554438E3,2.4496414E2,7.502246E1,4.383957E2,0E0,1.8530585E2,0E0,3.0601624E1,9.8758545E0,9.477576E1,0E0,2.7007584E1,7.134584E1,0E0,0E0,0E0,3.8566144E2,0E0,0E0,0E0,0E0,0E0,0E0],"parents":[2147483647,0,0,1,1,2,2,3,3,5,5,7,7,8,8,9,9,11,11,12,12,16,16],"right_children":[2,4,6,8,-1,10,-1,12,14,16,-1,18,20,-1,-1,-1,22,-1,-1,-1,-1,-1,-1],"split_conditions":[3.3E1,2.9E1,4.8E1,2E1,-1.8071167E-1,4.5E1,2.06699E-1,1.1E1,2.1E1,3.6E1,-5.4725688E-2,9E0,1.5E1,6.069107E-2,1.2539704E-1,1.9821392E-1,3.8E1,-1.5627112E-2,-6.4067066E-2,5.9412677E-2,-6.8415105E-2,-9.066663E-2,1.6436185E-1],"split_indices":[1,1,1,1,0,1,0,1,1,1,0,1,1,0,0,0,1,0,0,0,0,0,0],"split_type":[0,0,0,0,0,0,0,0,0,0,0,0,0,0,0,0,0,0,0,0,0,0,0],"sum_hessian":[8E3,7.34E3,6.6E2,7.255E3,8.5E1,5.04E2,1.56E2,6.938E3,3.17E2,4.54E2,5E1,6.732E3,2.06E2,1.2E2,1.97E2,1.72E2,2.82E2,6.601E3,1.31E2,1.51E2,5.5E1,7.7E1,2.05E2],"tree_param":{"num_deleted":"0","num_feature":"2","num_nodes":"23","size_leaf_vector":"1"}},{"base_weights":[-0E0,1.3344486E-1,-1.3623326E-1,3.7702626E-1,-2.4234273E-1,8.050288E-1,2.5002375E-1,-1.6819285E-1,-7.989811E-2,1.4790417E-1,7.163395E-2,-2.1854587E-1,3.833039E-1,-4.1277987E-1,2.6748684E-1,2.590865E-1,3.240135E-2,-9.828842E-3,-1.7482737E-1,5.8654256E-2,7.397417E-3],"categories":[],"categories_nodes":[],"categories_segments":[],"categories_sizes":[],"default_left":[0,0,0,0,0,0,0,0,0,0,0,0,0,0,0,0,0,0,0,0,0],"id":17,"left_children":[1,3,-1,5,7,9,11,-1,13,-1,-1,-1,15,17,19,-1,-1,-1,-1,-1,-1],"loss_changes":[1.4439009E3,6.6909344E2,0E0,2.3070374E2,6.494298E2,3.664496E1,1.1010682E3,0E0,2.9886893E2,0E0,0E0,0E0,3.9814383E2,5.391243E2,7.015766E1,0E0,0E0,0E0,0E0,0E0,0E0],"parents":[2147483647,0,0,1,1,3,3,4,4,5,5,6,6,8,8,12,12,13,13,14,14],"right_children":[2,4,-1,6,8,10,12,-1,14,-1,-1,-1,16,18,20,-1,-1,-1,-1,-1,-1],"split_conditions":[1.8643E2,1.2017E2,-1.3623326E-1,4.664E1,1.267E2,3.092E1,5E1,-1.6819285E-1,1.4629E2,1.4790417E-1,7.163395E-2,-2.1854587E-1,5.148E1,1.4335E2,1.5511E2,2.590865E-1,3.240135E-2,-9.828842E-3,-1.7482737E-1,5.8654256E-2,7.397417E-3],"split_indices":[0,0,0,0,0,0,0,0,0,0,0,0,0,0,0,0,0,0,0,0,0],"split_type":[0,0,0,0,0,0,0,0,0,0,0,0,0,0,0,0,0,0,0,0,0],"sum_hessian":[8E3,7.293E3,7.07E2,4.441E3,2.852E3,9.97E2,3.444E3,2.82E2,2.57E3,1.01E2,8.96E2,1.74E2,3.27E3,1.327E3,1.243E3,8E1,3.19E3,1.081E3,2.46E2,4.49E2,7.94E2],"tree_param":{"num_deleted":"0","num_feature":"2","num_nodes":"21","size_leaf_vector":"1"}},{"base_weights":[-0E0,-1.0871104E-1,1.2206511E0,-9.00643E-2,-1.564432E-1,1.0075437E0,1.8346553E-1,-1.3718635E-1,9.0701085E-1,1.1867455E0,-4.1489538E-2,-1.474772E-1,1.4989316E-1,6.578251E-2,1.24906E-1,1.7521024E-1,8.016095E-1,-1.3907747E-2,-4.907154E-2,5.022024E-2,-6.3048E-2,-7.558416E-2,1.4359765E-1],"categories":[],"categories_nodes":[],"categories_segments":[],"categories_sizes":[],"default_left":[0,0,0,0,0,0,0,0,0,0,0,0,0,0,0,0,0,0,0,0,0,0,0],"id":18,"left_children":[1,3,5,7,-1,9,-1,11,13,15,-1,17,19,-1,-1,-1,21,-1,-1,-1,-1,-1,-1],"loss_changes":[1.0716395E3,1.8258148E2,5.622058E1,3.333437E2,0E0,1.3693726E2,0E0,2.0497757E1,7.2138367E0,7.212976E1,0E0,1.3045761E1,5.5944912E1,0E0,0E0,0E0,2.8748944E2,0E0,0E0,0E0,0E0,0E0,0E0],"parents":[2147483647,0,0,1,1,2,2,3,3,5,5,7,7,8,8,9,9,11,11,12,12,16,16],"right_children":[2,4,6,8,-1,10,-1,12,14,16,-1,18,20,-1,-1,-1,22,-1,-1,-1,-1,-1,-1],"split_conditions":[3.3E1,2.9E1,4.8E1,2E1,-1.564432E-1,4.5E1,1.8346553E-1,1.1E1,2.7E1,3.6E1,-4.1489538E-2,9E0,1.5E1,6.578251E-2,1.24906E-1,1.7521024E-1,3.8E1,-1.3907747E-2,-4.907154E-2,5.022024E-2,-6.3048E-2,-7.558416E-2,1.4359765E-1],"split_indices":[1,1,1,1,0,1,0,1,1,1,0,1,1,0,0,0,1,0,0,0,0,0,0],"split_type":[0,0,0,0,0,0,0,0,0,0,0,0,0,0,0,0,0,0,0,0,0,0,0],"sum_hessian":[8E3,7.34E3,6.6E2,7.255E3,8.5E1,5.04E2,1.56E2,6.938E3,3.17E2,4.54E2,5E1,6.732E3,2.06E2,2.02E2,1.15E2,1.72E2,2.82E2,6.601E3,1.31E2,1.51E2,5.5E1,7.7E1,2.05E2],"tree_param":{"num_deleted":"0","num_feature":"2","num_nodes":"23","size_leaf_vector":"1"}},{"base_weights":[-0E0,-9.78455E-2,1.0991687E0,-8.0904126E-2,-1.4098078E-1,9.052086E-1,1.6523579E-1,-1.2362265E-1,8.20054E-1,1.0686055E0,-3.7421934E-2,-1.3288724E-1,1.300111E-1,4.5192786E-2,9.903733E-2,1.577905E-1,7.181553E-1,-1.2517174E-2,-4.420156E-2,4.523128E-2,-5.6855798E-2,-6.812265E-2,1.2930758E-1],"categories":[],"categories_nodes":[],"categories_segments":[],"categories_sizes":[],"default_left":[0,0,0,0,0,0,0,0,0,0,0,0,0,0,0,0,0,0,0,0,0,0,0],"id":19,"left_children":[1,3,5,7,-1,9,-1,11,13,15,-1,17,19,-1,-1,-1,21,-1,-1,-1,-1,-1,-1],"loss_changes":[8.688824E2,1.4814316E2,4.3851746E1,2.7240305E2,0E0,1.1291629E2,0E0,1.6351402E1,5.067688E0,5.7116516E1,0E0,1.0331566E1,4.570076E1,0E0,0E0,0E0,2.3468228E2,0E0,0E0,0E0,0E0,0E0,0E0],"parents":[2147483647,0,0,1,1,2,2,3,3,5,5,7,7,8,8,9,9,11,11,12,12,16,16],"right_children":[2,4,6,8,-1,10,-1,12,14,16,-1,18,20,-1,-1,-1,22,-1,-1,-1,-1,-1,-1],"split_conditions":[3.3E1,2.9E1,4.8E1,2E1,-1.4098078E-1,4.5E1,1.6523579E-1,1.1E1,2.1E1,3.6E1,-3.7421934E-2,9E0,1.5E1,4.5192786E-2,9.903733E-2,1.577905E-1,3.8E1,-1.2517174E-2,-4.420156E-2,4.523128E-2,-5.6855798E-2,-6.812265E-2,1.2930758E-1],"split_indices":[1,1,1,1,0,1,0,1,1,1,0,1,1,0,0,0,1,0,0,0,0,0,0],"split_type":[0,0,0,0,0,0,0,0,0,0,0,0,0,0,0,0,0,0,0,0,0,0,0],"sum_hessian":[8E3,7.34E3,6.6E2,7.255E3,8.5E1,5.04E2,1.56E2,6.938E3,3.17E2,4.54E2,5E1,6.732E3,2.06E2,1.2E2,1.97E2,1.72E2,2.82E2,6.601E3,1.31E2,1.51E2,5.5E1,7.7E1,2.05E2],"tree_param":{"num_deleted":"0","num_feature":"2","num_nodes":"23","size_leaf_vector":"1"}},{"base_weights":[-0E0,1.1552464E-1,-1.17925964E-1,3.298443E-1,-2.1469736E-1,1.8774574E-1,6.313272E-1,-7.8585833E-1,1.1581562E-1,2.697674E-1,-2.655376E-1,5.460182E-1,1.4534065E-1,-5.121339E-1,-1.7969939E-1,9.308618E-2,-4.6030056E-2,7.046109E-2,4.36893E-3,6.650848E-2,2.2606903E-3,-1.0184415E-1,9.384744E-2,-1.5262805E-1,2.3987658E-2],"categories":[],"categories_nodes":[],"categories_segments":[],"categories_sizes":[],"default_left":[0,0,0,0,0,0,0,0,0,0,0,0,0,0,0,0,0,0,0,0,0,0,0,0,0],"id":20,"left_children":[1,3,-1,5,7,9,11,13,15,17,-1,19,-1,21,-1,-1,23,-1,-1,-1,-1,-1,-1,-1,-1],"loss_changes":[1.081928E3,5.1744104E2,0E0,1.8198724E2,5.4536975E2,6.864806E2,7.73952E1,2.6853693E2,2.4593651E2,2.836762E2,0E0,7.294098E1,0E0,6.1943115E2,0E0,0E0,6.438181E2,0E0,0E0,0E0,0E0,0E0,0E0,0E0,0E0],"parents":[2147483647,0,0,1,1,3,3,4,4,5,5,6,6,7,7,8,8,9,9,11,11,13,13,16,16],"right_children":[2,4,-1,6,8,10,12,14,16,18,-1,20,-1,22,-1,-1,24,-1,-1,-1,-1,-1,-1,-1,-1],"split_conditions":[1.8643E2,1.2017E2,-1.17925964E-1,8.834E1,1.3964E2,8.613E1,1.2E2,1.3893E2,1.4335E2,4.664E1,-2.655376E-1,1.0774E2,1.4534065E-1,1.3124E2,-1.7969939E-1,9.308618E-2,1.4629E2,7.046109E-2,4.36893E-3,6.650848E-2,2.2606903E-3,-1.0184415E-1,9.384744E-2,-1.5262805E-1,2.3987658E-2],"split_indices":[0,0,0,0,0,0,0,0,0,0,0,0,0,0,0,0,0,0,0,0,0,0,0,0,0],"split_type":[0,0,0,0,0,0,0,0,0,0,0,0,0,0,0,0,0,0,0,0,0,0,0,0,0],"sum_hessian":[8E3,7.293E3,7.07E2,4.441E3,2.852E3,3.042E3,1.399E3,1.056E3,1.796E3,2.961E3,8.1E1,1.28E3,1.19E2,8.4E2,2.16E2,3.07E2,1.489E3,9.97E2,1.964E3,1.027E3,2.53E2,6.28E2,2.12E2,2.46E2,1.243E3],"tree_param":{"num_deleted":"0","num_feature":"2","num_nodes":"25","size_leaf_vector":"1"}},{"base_weights":[-0E0,-8.604078E-2,9.701307E-1,-7.161887E-2,-1.18556775E-1,7.992456E-1,1.4499193E-1,-1.083984E-1,6.9971687E-1,9.3925995E-1,-2.69495E-2,-1.1633638E-1,1.02011465E-1,4.85481E-2,9.823908E-2,1.359744E-1,6.435603E-1,-1.1101624E-2,-3.0578533E-2,3.8780224E-2,-4.9695652E-2,-5.0276976E-2,1.1230272E-1],"categories":[],"categories_nodes":[],"categories_segments":[],"categories_sizes":[],"default_left":[0,0,0,0,0,0,0,0,0,0,0,0,0,0,0,0,0,0,0,0,0,0,0],"id":21,"left_children":[1,3,5,7,-1,9,-1,11,13,15,-1,17,19,-1,-1,-1,21,-1,-1,-1,-1,-1,-1],"loss_changes":[6.76448E2,1.0375148E2,3.0544006E1,2.0001079E2,0E0,8.251846E1,0E0,1.1744843E1,4.102066E0,3.5665222E1,0E0,2.5841904E0,3.453534E1,0E0,0E0,0E0,1.6231175E2,0E0,0E0,0E0,0E0,0E0,0E0],"parents":[2147483647,0,0,1,1,2,2,3,3,5,5,7,7,8,8,9,9,11,11,12,12,16,16],"right_children":[2,4,6,8,-1,10,-1,12,14,16,-1,18,20,-1,-1,-1,22,-1,-1,-1,-1,-1,-1],"split_conditions":[3.3E1,2.9E1,4.8E1,2E1,-1.18556775E-1,4.5E1,1.4499193E-1,1.1E1,2.7E1,3.6E1,-2.69495E-2,9E0,1.5E1,4.85481E-2,9.823908E-2,1.359744E-1,3.8E1,-1.1101624E-2,-3.0578533E-2,3.8780224E-2,-4.9695652E-2,-5.0276976E-2,1.1230272E-1],"split_indices":[1,1,1,1,0,1,0,1,1,1,0,1,1,0,0,0,1,0,0,0,0,0,0],"split_type":[0,0,0,0,0,0,0,0,0,0,0,0,0,0,0,0,0,0,0,0,0,0,0],"sum_hessian":[8E3,7.34E3,6.6E2,7.255E3,8.5E1,5.04E2,1.56E2,6.938E3,3.17E2,4.54E2,5E1,6.732E3,2.06E2,2.02E2,1.15E2,1.72E2,2.82E2,6.601E3,1.31E2,1.51E2,5.5E1,7.7E1,2.05E2],"tree_param":{"num_deleted":"0","num_feature":"2","num_nodes":"23","size_leaf_vector":"1"}},{"base_weights":[-0E0,-7.7439934E-2,8.7359565E-1,-6.4306095E-2,-1.0683896E-1,7.1767944E-1,1.305851E-1,-9.7710155E-2,6.3335145E-1,8.45769E-1,-2.4307394E-2,-1.0485736E-1,8.6926654E-2,4.3717194E-2,8.849987E-2,1.2245553E-1,5.758898E-1,-9.99162E-3,-2.7543843E-2,3.4927715E-2,-4.4814836E-2,-4.531374E-2,1.0112696E-1],"categories":[],"categories_nodes":[],"categories_segments":[],"categories_sizes":[],"default_left":[0,0,0,0,0,0,0,0,0,0,0,0,0,0,0,0,0,0,0,0,0,0,0],"id":22,"left_children":[1,3,5,7,-1,9,-1,11,13,15,-1,17,19,-1,-1,-1,21,-1,-1,-1,-1,-1,-1],"loss_changes":[5.484785E2,8.414722E1,2.3375977E1,1.6380362E2,0E0,6.837906E1,0E0,9.345375E0,2.0904388E0,2.7803406E1,0E0,1.8939743E0,2.8225895E1,0E0,0E0,0E0,1.3282855E2,0E0,0E0,0E0,0E0,0E0,0E0],"parents":[2147483647,0,0,1,1,2,2,3,3,5,5,7,7,8,8,9,9,11,11,12,12,16,16],"right_children":[2,4,6,8,-1,10,-1,12,14,16,-1,18,20,-1,-1,-1,22,-1,-1,-1,-1,-1,-1],"split_conditions":[3.3E1,2.9E1,4.8E1,2E1,-1.0683896E-1,4.5E1,1.305851E-1,1.1E1,2.7E1,3.6E1,-2.4307394E-2,9E0,1.5E1,4.3717194E-2,8.849987E-2,1.2245553E-1,3.8E1,-9.99162E-3,-2.7543843E-2,3.4927715E-2,-4.4814836E-2,-4.531374E-2,1.0112696E-1],"split_indices":[1,1,1,1,0,1,0,1,1,1,0,1,1,0,0,0,1,0,0,0,0,0,0],"split_type":[0,0,0,0,0,0,0,0,0,0,0,0,0,0,0,0,0,0,0,0,0,0,0],"sum_hessian":[8E3,7.34E3,6.6E2,7.255E3,8.5E1,5.04E2,1.56E2,6.938E3,3.17E2,4.54E2,5E1,6.732E3,2.06E2,2.02E2,1.15E2,1.72E2,2.82E2,6.601E3,1.31E2,1.51E2,5.5E1,7.7E1,2.05E2],"tree_param":{"num_deleted":"0","num_feature":"2","num_nodes":"23","size_leaf_vector":"1"}},{"base_weights":[-0E0,2.8999117E-1,-3.594983E-1,1.6638115E-1,5.513164E-1,-1.903893E-1,-1.0263182E-1,2.3935951E-1,-2.349817E-1,4.7743988E-1,1.2520203E-1,-1.3937914E-1,-5.396254E-2,3.9872286E-1,-2.8333163E-1,5.883011E-1,-0E0,1.16964675E-1,-1.2849022E-1,1.61231E-2,8.0435626E-2,-2.7216455E-1,7.361243E-2,7.522733E-2,4.950055E-2,7.935533E-3,-3.1460195E-3,-1.6217335E-1,6.6662085E-4],"categories":[],"categories_nodes":[],"categories_segments":[],"categories_sizes":[],"default_left":[0,0,0,0,0,0,0,0,0,0,0,0,0,0,0,0,0,0,0,0,0,0,0,0,0,0,0,0,0],"id":23,"left_children":[1,3,5,7,9,11,-1,13,-1,15,-1,-1,17,19,21,23,25,-1,27,-1,-1,-1,-1,-1,-1,-1,-1,-1,-1],"loss_changes":[8.336404E2,1.3621863E2,3.8908176E2,5.3823785E2,5.4579437E1,4.538421E2,0E0,2.47995E2,0E0,6.37865E1,0E0,0E0,2.2419534E2,2.1033905E2,1.7071995E3,2.881073E0,9.6359295E-1,0E0,5.069912E2,0E0,0E0,0E0,0E0,0E0,0E0,0E0,0E0,0E0,0E0],"parents":[2147483647,0,0,1,1,2,2,3,3,4,4,5,5,7,7,9,9,12,12,13,13,14,14,15,15,16,16,18,18],"right_children":[2,4,6,8,10,12,-1,14,-1,16,-1,-1,18,20,22,24,26,-1,28,-1,-1,-1,-1,-1,-1,-1,-1,-1,-1],"split_conditions":[1.2017E2,8.834E1,1.8643E2,8.613E1,1.2E2,1.267E2,-1.0263182E-1,7.509E1,-2.349817E-1,1.0774E2,1.2520203E-1,-1.3937914E-1,1.3107E2,5.533E1,8E1,9.013E1,1.15E2,1.16964675E-1,1.3124E2,1.61231E-2,8.0435626E-2,-2.7216455E-1,7.361243E-2,7.522733E-2,4.950055E-2,7.935533E-3,-3.1460195E-3,-1.6217335E-1,6.6662085E-4],"split_indices":[0,0,0,0,0,0,0,0,0,0,0,0,0,0,0,0,0,0,0,0,0,0,0,0,0,0,0,0,0],"split_type":[0,0,0,0,0,0,0,0,0,0,0,0,0,0,0,0,0,0,0,0,0,0,0,0,0,0,0,0,0],"sum_hessian":[8E3,4.441E3,3.559E3,3.042E3,1.399E3,2.852E3,7.07E2,2.961E3,8.1E1,1.28E3,1.19E2,2.82E2,2.57E3,2.284E3,6.77E2,1.027E3,2.53E2,1.39E2,2.431E3,1.457E3,8.27E2,2.02E2,4.75E2,3.31E2,6.96E2,1.33E2,1.2E2,2.07E2,2.224E3],"tree_param":{"num_deleted":"0","num_feature":"2","num_nodes":"29","size_leaf_vector":"1"}},{"base_weights":[1.565611E-5,-6.8694316E-2,7.7823037E-1,-5.7411965E-2,-9.035324E-2,6.416273E-1,1.1489711E-1,-8.645109E-2,5.449777E-1,7.4394006E-1,-8.76655E-3,-9.245146E-2,6.082868E-2,3.6600634E-2,7.672726E-2,1.0666583E-1,5.086956E-1,-8.816235E-3,-2.305138E-2,2.5934322E-2,-3.0051127E-2,-2.3703135E-3,1.0694434E-1],"categories":[],"categories_nodes":[],"categories_segments":[],"categories_sizes":[],"default_left":[0,0,0,0,0,0,0,0,0,0,0,0,0,0,0,0,0,0,0,0,0,0,0],"id":24,"left_children":[1,3,5,7,-1,9,-1,11,13,15,-1,17,19,-1,-1,-1,21,-1,-1,-1,-1,-1,-1],"loss_changes":[4.3497116E2,5.948312E1,1.4832733E1,1.2239012E2,0E0,4.4309006E1,0E0,6.454067E0,1.0378265E0,1.8246399E1,0E0,7.799568E-1,1.4514619E1,0E0,0E0,0E0,9.496998E1,0E0,0E0,0E0,0E0,0E0,0E0],"parents":[2147483647,0,0,1,1,2,2,3,3,5,5,7,7,8,8,9,9,11,11,12,12,16,16],"right_children":[2,4,6,8,-1,10,-1,12,14,16,-1,18,20,-1,-1,-1,22,-1,-1,-1,-1,-1,-1],"split_conditions":[3.3E1,2.9E1,4.8E1,2E1,-9.035324E-2,4.5E1,1.1489711E-1,1.1E1,2.7E1,3.6E1,-8.76655E-3,9E0,1.5E1,3.6600634E-2,7.672726E-2,1.0666583E-1,4.4E1,-8.816235E-3,-2.305138E-2,2.5934322E-2,-3.0051127E-2,-2.3703135E-3,1.0694434E-1],"split_indices":[1,1,1,1,0,1,0,1,1,1,0,1,1,0,0,0,1,0,0,0,0,0,0],"split_type":[0,0,0,0,0,0,0,0,0,0,0,0,0,0,0,0,0,0,0,0,0,0,0],"sum_hessian":[8E3,7.34E3,6.6E2,7.255E3,8.5E1,5.04E2,1.56E2,6.938E3,3.17E2,4.54E2,5E1,6.732E3,2.06E2,2.02E2,1.15E2,1.72E2,2.82E2,6.601E3,1.31E2,1.51E2,5.5E1,1.36E2,1.46E2],"tree_param":{"num_deleted":"0","num_feature":"2","num_nodes":"23","size_leaf_vector":"1"}},{"base_weights":[-0E0,2.5881448E-1,-3.202912E-1,5.966676E-1,1.5796217E-1,-1.7013195E-1,-9.108054E-2,1.1834788E-1,5.1812645E-2,-1.9151668E-1,2.718844E-1,-6.414536E-1,1.01630524E-1,2.231454E-1,2.1892388E-1,-3.880513E-1,-1.5744947E-1,7.918718E-2,-3.4407027E-2,-2.1549729E-1,3.1564243E-2,-8.080398E-2,8.0707006E-2,-1.3248248E-1,2.1379845E-2],"categories":[],"categories_nodes":[],"categories_segments":[],"categories_sizes":[],"default_left":[0,0,0,0,0,0,0,0,0,0,0,0,0,0,0,0,0,0,0,0,0,0,0,0,0],"id":25,"left_children":[1,3,5,7,9,11,-1,-1,-1,-1,13,15,17,-1,19,21,-1,-1,23,-1,-1,-1,-1,-1,-1],"loss_changes":[6.627549E2,1.4371289E2,3.0470508E2,2.8367432E1,7.977124E2,3.708972E2,0E0,0E0,0E0,0E0,3.1447144E2,2.2967511E2,1.7633792E2,0E0,7.149397E2,4.2279114E2,0E0,0E0,4.8862378E2,0E0,0E0,0E0,0E0,0E0,0E0],"parents":[2147483647,0,0,1,1,2,2,3,3,4,4,5,5,10,10,11,11,12,12,14,14,15,15,18,18],"right_children":[2,4,6,8,10,12,-1,-1,-1,-1,14,16,18,-1,20,22,-1,-1,24,-1,-1,-1,-1,-1,-1],"split_conditions":[1.2017E2,4.664E1,1.8643E2,3.092E1,5E1,1.3964E2,-9.108054E-2,1.1834788E-1,5.1812645E-2,-1.9151668E-1,5.148E1,1.3893E2,1.4335E2,2.231454E-1,5.347E1,1.3124E2,-1.5744947E-1,7.918718E-2,1.4629E2,-2.1549729E-1,3.1564243E-2,-8.080398E-2,8.0707006E-2,-1.3248248E-1,2.1379845E-2],"split_indices":[0,0,0,0,0,0,0,0,0,0,0,0,0,0,0,0,0,0,0,0,0,0,0,0,0],"split_type":[0,0,0,0,0,0,0,0,0,0,0,0,0,0,0,0,0,0,0,0,0,0,0,0,0],"sum_hessian":[8E3,4.441E3,3.559E3,9.97E2,3.444E3,2.852E3,7.07E2,1.01E2,8.96E2,1.74E2,3.27E3,1.056E3,1.796E3,8E1,3.19E3,8.4E2,2.16E2,3.07E2,1.489E3,1.2E2,3.07E3,6.28E2,2.12E2,2.46E2,1.243E3],"tree_param":{"num_deleted":"0","num_feature":"2","num_nodes":"25","size_leaf_vector":"1"}},{"base_weights":[-0E0,2.3316215E-1,-2.8834096E-1,5.381733E-1,1.4183143E-1,-1.5283473E-1,-8.198536E-2,1.0662911E-1,4.663716E-2,-1.7247447E-1,2.4470791E-1,-1.17173694E-1,-3.6731195E-2,2.0110631E-1,1.9666044E-1,1.1350509E-1,-1.0828249E-1,-1.9412564E-1,2.840884E-2,-1.3693163E-1,5.1571964E-4],"categories":[],"categories_nodes":[],"categories_segments":[],"categories_sizes":[],"default_left":[0,0,0,0,0,0,0,0,0,0,0,0,0,0,0,0,0,0,0,0,0],"id":26,"left_children":[1,3,5,7,9,11,-1,-1,-1,-1,13,-1,15,-1,17,-1,19,-1,-1,-1,-1],"loss_changes":[5.374677E2,1.1686394E2,2.4655069E2,2.202002E1,6.4715393E2,3.2537692E2,0E0,0E0,0E0,0E0,2.5513347E2,0E0,2.0541435E2,0E0,5.8042145E2,0E0,3.6154938E2,0E0,0E0,0E0,0E0],"parents":[2147483647,0,0,1,1,2,2,3,3,4,4,5,5,10,10,12,12,14,14,16,16],"right_children":[2,4,6,8,10,12,-1,-1,-1,-1,14,-1,16,-1,18,-1,20,-1,-1,-1,-1],"split_conditions":[1.2017E2,4.664E1,1.8643E2,3.092E1,5E1,1.267E2,-8.198536E-2,1.0662911E-1,4.663716E-2,-1.7247447E-1,5.148E1,-1.17173694E-1,1.3107E2,2.0110631E-1,5.347E1,1.1350509E-1,1.3124E2,-1.9412564E-1,2.840884E-2,-1.3693163E-1,5.1571964E-4],"split_indices":[0,0,0,0,0,0,0,0,0,0,0,0,0,0,0,0,0,0,0,0,0],"split_type":[0,0,0,0,0,0,0,0,0,0,0,0,0,0,0,0,0,0,0,0,0],"sum_hessian":[8E3,4.441E3,3.559E3,9.97E2,3.444E3,2.852E3,7.07E2,1.01E2,8.96E2,1.74E2,3.27E3,2.82E2,2.57E3,8E1,3.19E3,1.39E2,2.431E3,1.2E2,3.07E3,2.07E2,2.224E3],"tree_param":{"num_deleted":"0","num_feature":"2","num_nodes":"21","size_leaf_vector":"1"}},{"base_weights":[-0E0,-5.9408475E-2,6.7352843E-1,-4.9801726E-2,-7.5298004E-2,5.606579E-1,9.685991E-2,-7.354541E-2,4.3701342E-1,6.3448167E-1,-0E0,-7.7278614E-3,-0E0,2.6947582E-2,6.4023E-2,8.934832E-2,4.385745E-1,1.5085657E-2,-2.3115885E-2,-0E0,8.763736E-2],"categories":[],"categories_nodes":[],"categories_segments":[],"categories_sizes":[],"default_left":[0,0,0,0,0,0,0,0,0,0,0,0,0,0,0,0,0,0,0,0,0],"id":27,"left_children":[1,3,5,7,-1,9,-1,11,13,15,-1,-1,17,-1,-1,-1,19,-1,-1,-1,-1],"loss_changes":[3.2576547E2,4.0847527E1,6.178833E0,8.0268005E1,0E0,2.4427673E1,0E0,2.6768227E0,1.5571747E0,9.37439E0,0E0,0E0,6.451497E0,0E0,0E0,0E0,5.8466133E1,0E0,0E0,0E0,0E0],"parents":[2147483647,0,0,1,1,2,2,3,3,5,5,7,7,8,8,9,9,12,12,16,16],"right_children":[2,4,6,8,-1,10,-1,12,14,16,-1,-1,18,-1,-1,-1,20,-1,-1,-1,-1],"split_conditions":[3.3E1,2.9E1,4.8E1,2E1,-7.5298004E-2,4.5E1,9.685991E-2,1.1E1,2.7E1,3.6E1,-0E0,-7.7278614E-3,1.5E1,2.6947582E-2,6.4023E-2,8.934832E-2,4.4E1,1.5085657E-2,-2.3115885E-2,-0E0,8.763736E-2],"split_indices":[1,1,1,1,0,1,0,1,1,1,0,0,1,0,0,0,1,0,0,0,0],"split_type":[0,0,0,0,0,0,0,0,0,0,0,0,0,0,0,0,0,0,0,0,0],"sum_hessian":[8E3,7.34E3,6.6E2,7.255E3,8.5E1,5.04E2,1.56E2,6.938E3,3.17E2,4.54E2,5E1,6.732E3,2.06E2,2.02E2,1.15E2,1.72E2,2.82E2,1.51E2,5.5E1,1.36E2,1.46E2],"tree_param":{"num_deleted":"0","num_feature":"2","num_nodes":"21","size_leaf_vector":"1"}},{"base_weights":[5.2947667E-5,2.0809092E-1,-2.5671804E-1,1.0457031E-1,4.2580885E-1,-1.362357E-1,-7.277341E-2,2.4116485E-1,-9.777491E-1,3.625309E-1,1.0144192E-1,-1.0523315E-1,-3.1454932E-2,8.4676E-2,1.925372E-1,-2.8507844E-1,-3.409631E-2,4.6390343E-1,-9.805788E-3,1.0251409E-1,-9.637761E-2,3.1804096E-2,-2.493273E-1,1.090493E-1,-2.1442346E-1,5.97045E-2,3.8547173E-2,2.6681693E-3,-1.3277701E-2,-1.2245407E-1,4.6355542E-4],"categories":[],"categories_nodes":[],"categories_segments":[],"categories_sizes":[],"default_left":[0,0,0,0,0,0,0,0,0,0,0,0,0,0,0,0,0,0,0,0,0,0,0,0,0,0,0,0,0,0,0],"id":28,"left_children":[1,3,5,7,9,11,-1,13,15,17,-1,-1,19,21,-1,-1,23,25,27,-1,29,-1,-1,-1,-1,-1,-1,-1,-1,-1,-1],"loss_changes":[4.2696548E2,9.476677E1,1.93288E2,4.427438E2,3.8007202E1,2.629863E2,0E0,6.9424664E2,5.5962976E2,5.289653E1,0E0,0E0,1.6717415E2,1.4752272E3,0E0,0E0,5.491825E2,6.795807E-1,2.204171E0,0E0,2.8935382E2,0E0,0E0,0E0,0E0,0E0,0E0,0E0,0E0,0E0,0E0],"parents":[2147483647,0,0,1,1,2,2,3,3,4,4,5,5,7,7,8,8,9,9,12,12,13,13,16,16,17,17,18,18,20,20],"right_children":[2,4,6,8,10,12,-1,14,16,18,-1,-1,20,22,-1,-1,24,26,28,-1,30,-1,-1,-1,-1,-1,-1,-1,-1,-1,-1],"split_conditions":[1.2017E2,8.834E1,1.8643E2,8.154E1,1.2E2,1.267E2,-7.277341E-2,8E1,8.421E1,1.0774E2,1.0144192E-1,-1.0523315E-1,1.3107E2,7.509E1,1.925372E-1,-2.8507844E-1,8.613E1,9.013E1,1.15E2,1.0251409E-1,1.3124E2,3.1804096E-2,-2.493273E-1,1.090493E-1,-2.1442346E-1,5.97045E-2,3.8547173E-2,2.6681693E-3,-1.3277701E-2,-1.2245407E-1,4.6355542E-4],"split_indices":[0,0,0,0,0,0,0,0,0,0,0,0,0,0,0,0,0,0,0,0,0,0,0,0,0,0,0,0,0,0,0],"split_type":[0,0,0,0,0,0,0,0,0,0,0,0,0,0,0,0,0,0,0,0,0,0,0,0,0,0,0,0,0,0,0],"sum_hessian":[8E3,4.441E3,3.559E3,3.042E3,1.399E3,2.852E3,7.07E2,2.71E3,3.32E2,1.28E3,1.19E2,2.82E2,2.57E3,2.486E3,2.24E2,1.07E2,2.25E2,1.027E3,2.53E2,1.39E2,2.431E3,2.284E3,2.02E2,1.44E2,8.1E1,3.31E2,6.96E2,1.33E2,1.2E2,2.07E2,2.224E3],"tree_param":{"num_deleted":"0","num_feature":"2","num_nodes":"31","size_leaf_vector":"1"}},{"base_weights":[1.1970124E-4,1.8768114E-1,-2.3110165E-1,4.496561E-1,1.08831E-1,-1.2230528E-1,-6.550635E-2,9.2034265E-2,3.8448367E-2,-1.5779452E-1,2.020982E-1,-4.9386805E-1,9.0752125E-2,1.7693107E-1,1.591191E-1,-2.4441083E-1,-1.4122997E-1,7.023231E-2,-2.9016074E-2,-1.7726123E-1,2.384354E-2,-5.8540583E-2,7.167641E-2,-1.1828746E-1,1.920708E-2],"categories":[],"categories_nodes":[],"categories_segments":[],"categories_sizes":[],"default_left":[0,0,0,0,0,0,0,0,0,0,0,0,0,0,0,0,0,0,0,0,0,0,0,0,0],"id":29,"left_children":[1,3,5,7,9,11,-1,-1,-1,-1,13,15,17,-1,19,21,-1,-1,23,-1,-1,-1,-1,-1,-1],"loss_changes":[3.465982E2,8.6123505E1,1.56353E2,1.721231E1,5.285309E2,2.2993141E2,0E0,0E0,0E0,0E0,2.0076018E2,2.2525635E2,1.3837787E2,0E0,4.7399893E2,2.7474866E2,0E0,0E0,3.9023865E2,0E0,0E0,0E0,0E0,0E0,0E0],"parents":[2147483647,0,0,1,1,2,2,3,3,4,4,5,5,10,10,11,11,12,12,14,14,15,15,18,18],"right_children":[2,4,6,8,10,12,-1,-1,-1,-1,14,16,18,-1,20,22,-1,-1,24,-1,-1,-1,-1,-1,-1],"split_conditions":[1.2017E2,4.664E1,1.8643E2,3.092E1,5E1,1.3964E2,-6.550635E-2,9.2034265E-2,3.8448367E-2,-1.5779452E-1,5.148E1,1.3893E2,1.4335E2,1.7693107E-1,5.347E1,1.3124E2,-1.4122997E-1,7.023231E-2,1.4629E2,-1.7726123E-1,2.384354E-2,-5.8540583E-2,7.167641E-2,-1.1828746E-1,1.920708E-2],"split_indices":[0,0,0,0,0,0,0,0,0,0,0,0,0,0,0,0,0,0,0,0,0,0,0,0,0],"split_type":[0,0,0,0,0,0,0,0,0,0,0,0,0,0,0,0,0,0,0,0,0,0,0,0,0],"sum_hessian":[8E3,4.441E3,3.559E3,9.97E2,3.444E3,2.852E3,7.07E2,1.01E2,8.96E2,1.74E2,3.27E3,1.056E3,1.796E3,8E1,3.19E3,8.4E2,2.16E2,3.07E2,1.489E3,1.2E2,3.07E3,6.28E2,2.12E2,2.46E2,1.243E3],"tree_param":{"num_deleted":"0","num_feature":"2","num_nodes":"25","size_leaf_vector":"1"}},{"base_weights":[7.939679E-5,1.6913715E-1,-2.0805393E-1,7.75407E-2,3.609649E-1,-8.891364E-2,-1.4613983E-1,2.0187913E-1,-9.049188E-1,3.0330178E-1,8.901774E-2,9.814812E-2,-1.9957112E-1,6.134096E-2,1.7099528E-1,-2.5919685E-1,-5.046631E-2,3.94761E-1,-2.8680013E-2,-1.0444162E-1,-1.3615797E-1,2.727097E-2,-2.2689E-1,9.585165E-2,-1.955979E-1,5.137485E-2,3.2317046E-2,3.6739948E-5,-1.4325583E-2,3.71087E-4,-5.896495E-2],"categories":[],"categories_nodes":[],"categories_segments":[],"categories_sizes":[],"default_left":[0,0,0,0,0,0,0,0,0,0,0,0,0,0,0,0,0,0,0,0,0,0,0,0,0,0,0,0,0,0,0],"id":30,"left_children":[1,3,5,7,9,-1,11,13,15,17,-1,-1,19,21,-1,-1,23,25,27,-1,29,-1,-1,-1,-1,-1,-1,-1,-1,-1,-1],"loss_changes":[2.811736E2,7.363618E1,1.3963756E2,3.6487744E2,3.05177E1,0E0,1.8987708E2,5.567566E2,4.5346548E2,4.256687E1,0E0,0E0,1.5622171E2,1.2056039E3,0E0,0E0,4.4636374E2,2.2166443E-1,2.2742822E0,0E0,1.918364E2,0E0,0E0,0E0,0E0,0E0,0E0,0E0,0E0,0E0,0E0],"parents":[2147483647,0,0,1,1,2,2,3,3,4,4,6,6,7,7,8,8,9,9,12,12,13,13,16,16,17,17,18,18,20,20],"right_children":[2,4,6,8,10,-1,12,14,16,18,-1,-1,20,22,-1,-1,24,26,28,-1,30,-1,-1,-1,-1,-1,-1,-1,-1,-1,-1],"split_conditions":[1.2017E2,8.834E1,1.267E2,8.154E1,1.2E2,-8.891364E-2,1.3107E2,8E1,8.421E1,1.0774E2,8.901774E-2,9.814812E-2,1.3124E2,7.509E1,1.7099528E-1,-2.5919685E-1,8.613E1,9.013E1,1.15E2,-1.0444162E-1,1.8643E2,2.727097E-2,-2.2689E-1,9.585165E-2,-1.955979E-1,5.137485E-2,3.2317046E-2,3.6739948E-5,-1.4325583E-2,3.71087E-4,-5.896495E-2],"split_indices":[0,0,0,0,0,0,0,0,0,0,0,0,0,0,0,0,0,0,0,0,0,0,0,0,0,0,0,0,0,0,0],"split_type":[0,0,0,0,0,0,0,0,0,0,0,0,0,0,0,0,0,0,0,0,0,0,0,0,0,0,0,0,0,0,0],"sum_hessian":[8E3,4.441E3,3.559E3,3.042E3,1.399E3,2.82E2,3.277E3,2.71E3,3.32E2,1.28E3,1.19E2,1.39E2,3.138E3,2.486E3,2.24E2,1.07E2,2.25E2,1.027E3,2.53E2,2.07E2,2.931E3,2.284E3,2.02E2,1.44E2,8.1E1,3.31E2,6.96E2,1.33E2,1.2E2,2.224E3,7.07E2],"tree_param":{"num_deleted":"0","num_feature":"2","num_nodes":"31","size_leaf_vector":"1"}},{"base_weights":[1.4862586E-4,1.5262213E-1,-1.8729168E-1,3.7857974E-1,8.4216245E-2,-8.0053695E-2,-1.3124052E-1,8.0220714E-2,3.1883772E-2,-1.4481676E-1,1.692309E-1,8.84034E-2,-1.7966586E-1,1.5676299E-1,1.3054724E-1,-9.404766E-2,-1.22221015E-1,-1.6238618E-1,2.0288622E-2,3.3400525E-4,-5.3076785E-2],"categories":[],"categories_nodes":[],"categories_segments":[],"categories_sizes":[],"default_left":[0,0,0,0,0,0,0,0,0,0,0,0,0,0,0,0,0,0,0,0,0],"id":31,"left_children":[1,3,5,7,9,-1,11,-1,-1,-1,13,-1,15,-1,17,-1,19,-1,-1,-1,-1],"loss_changes":[2.283479E2,6.3999397E1,1.1294543E2,1.3791504E1,4.362534E2,0E0,1.5427809E2,0E0,0E0,0E0,1.5975891E2,0E0,1.2644701E2,0E0,3.910963E2,0E0,1.5568056E2,0E0,0E0,0E0,0E0],"parents":[2147483647,0,0,1,1,2,2,3,3,4,4,6,6,10,10,12,12,14,14,16,16],"right_children":[2,4,6,8,10,-1,12,-1,-1,-1,14,-1,16,-1,18,-1,20,-1,-1,-1,-1],"split_conditions":[1.2017E2,4.664E1,1.267E2,3.092E1,5E1,-8.0053695E-2,1.3107E2,8.0220714E-2,3.1883772E-2,-1.4481676E-1,5.148E1,8.84034E-2,1.3124E2,1.5676299E-1,5.347E1,-9.404766E-2,1.8643E2,-1.6238618E-1,2.0288622E-2,3.3400525E-4,-5.3076785E-2],"split_indices":[0,0,0,0,0,0,0,0,0,0,0,0,0,0,0,0,0,0,0,0,0],"split_type":[0,0,0,0,0,0,0,0,0,0,0,0,0,0,0,0,0,0,0,0,0],"sum_hessian":[8E3,4.441E3,3.559E3,9.97E2,3.444E3,2.82E2,3.277E3,1.01E2,8.96E2,1.74E2,3.27E3,1.39E2,3.138E3,8E1,3.19E3,2.07E2,2.931E3,1.2E2,3.07E3,2.224E3,7.07E2],"tree_param":{"num_deleted":"0","num_feature":"2","num_nodes":"21","size_leaf_vector":"1"}},{"base_weights":[1.14292954E-4,1.3758107E-1,-1.6860129E-1,5.670212E-2,3.061361E-1,-7.207661E-2,-1.178291E-1,1.699902E-1,-8.357324E-1,2.5353372E-1,7.8178205E-2,7.962622E-2,-1.6174594E-1,4.380846E-2,1.5195191E-1,-2.355272E-1,-6.163495E-2,3.360703E-2,-4.213989E-2,-8.468812E-2,-1.0967572E-1,2.3536317E-2,-2.0633161E-1,8.431775E-2,-1.7828077E-1,-0E0,-1.4916948E-2,6.4472295E-2,-1.7238794E-2],"categories":[],"categories_nodes":[],"categories_segments":[],"categories_sizes":[],"default_left":[0,0,0,0,0,0,0,0,0,0,0,0,0,0,0,0,0,0,0,0,0,0,0,0,0,0,0,0,0],"id":32,"left_children":[1,3,5,7,9,-1,11,13,15,17,-1,-1,19,21,-1,-1,23,-1,25,-1,27,-1,-1,-1,-1,-1,-1,-1,-1],"loss_changes":[1.8527849E2,5.6910065E1,9.1332375E1,3.0113864E2,2.4476776E1,0E0,1.25375656E2,4.4594525E2,3.6738425E2,3.421483E1,0E0,0E0,1.0232581E2,9.860331E2,0E0,0E0,3.62858E2,0E0,2.2413898E0,0E0,1.3410074E2,0E0,0E0,0E0,0E0,0E0,0E0,0E0,0E0],"parents":[2147483647,0,0,1,1,2,2,3,3,4,4,6,6,7,7,8,8,9,9,12,12,13,13,16,16,18,18,20,20],"right_children":[2,4,6,8,10,-1,12,14,16,18,-1,-1,20,22,-1,-1,24,-1,26,-1,28,-1,-1,-1,-1,-1,-1,-1,-1],"split_conditions":[1.2017E2,8.834E1,1.267E2,8.154E1,1.2E2,-7.207661E-2,1.3107E2,8E1,8.421E1,1.0774E2,7.8178205E-2,7.962622E-2,1.3124E2,7.509E1,1.5195191E-1,-2.355272E-1,8.613E1,3.360703E-2,1.15E2,-8.468812E-2,1.3893E2,2.3536317E-2,-2.0633161E-1,8.431775E-2,-1.7828077E-1,-0E0,-1.4916948E-2,6.4472295E-2,-1.7238794E-2],"split_indices":[0,0,0,0,0,0,0,0,0,0,0,0,0,0,0,0,0,0,0,0,0,0,0,0,0,0,0,0,0],"split_type":[0,0,0,0,0,0,0,0,0,0,0,0,0,0,0,0,0,0,0,0,0,0,0,0,0,0,0,0,0],"sum_hessian":[8E3,4.441E3,3.559E3,3.042E3,1.399E3,2.82E2,3.277E3,2.71E3,3.32E2,1.28E3,1.19E2,1.39E2,3.138E3,2.486E3,2.24E2,1.07E2,2.25E2,1.027E3,2.53E2,2.07E2,2.931E3,2.284E3,2.02E2,1.44E2,8.1E1,1.33E2,1.2E2,2.12E2,2.719E3],"tree_param":{"num_deleted":"0","num_feature":"2","num_nodes":"29","size_leaf_vector":"1"}},{"base_weights":[3.3013323E-5,4.6111148E-2,-4.6055164E-2,2.1183722E-1,-2.7487688E-2,5.895765E-3,5.09802E-1,-1.8580009E-1,4.7724806E-2,3.1832337E-1,-7.989273E-1,5.7207E-1,1.679681E-2,1.3682427E-1,-1.4920095E-2,6.994673E-2,2.6347948E-2,-1.32758E-1,-2.8493145E-2,1.6511459E-2,6.0958218E-2,-2.1219257E-1,3.3677518E-3],"categories":[],"categories_nodes":[],"categories_segments":[],"categories_sizes":[],"default_left":[0,0,0,0,0,0,0,0,0,0,0,0,0,0,0,0,0,0,0,0,0,0,0],"id":33,"left_children":[1,3,-1,5,7,9,11,-1,13,15,17,19,-1,-1,21,-1,-1,-1,-1,-1,-1,-1,-1],"loss_changes":[1.656811E2,9.081603E1,0E0,1.3505515E2,7.0795557E2,3.4043625E2,1.1958313E1,0E0,4.112892E2,1.1047859E1,8.53936E1,3.5711975E0,0E0,0E0,4.9033463E2,0E0,0E0,0E0,0E0,0E0,0E0,0E0,0E0],"parents":[2147483647,0,0,1,1,3,3,4,4,5,5,6,6,8,8,9,9,10,10,11,11,14,14],"right_children":[2,4,-1,6,8,10,12,-1,14,16,18,20,-1,-1,22,-1,-1,-1,-1,-1,-1,-1,-1],"split_conditions":[1.8643E2,7.509E1,-4.6055164E-2,5.347E1,8E1,4.664E1,6.876E1,-1.8580009E-1,8.154E1,3.092E1,5E1,5.533E1,1.679681E-2,1.3682427E-1,8.421E1,6.994673E-2,2.6347948E-2,-1.32758E-1,-2.8493145E-2,1.6511459E-2,6.0958218E-2,-2.1219257E-1,3.3677518E-3],"split_indices":[0,0,0,0,0,0,0,0,0,0,0,0,0,0,0,0,0,0,0,0,0,0,0],"split_type":[0,0,0,0,0,0,0,0,0,0,0,0,0,0,0,0,0,0,0,0,0,0,0],"sum_hessian":[8E3,7.293E3,7.07E2,2.284E3,5.009E3,1.371E3,9.13E2,2.02E2,4.807E3,9.97E2,3.74E2,7.47E2,1.66E2,2.24E2,4.583E3,1.01E2,8.96E2,1.74E2,2E2,8.6E1,6.61E2,1.07E2,4.476E3],"tree_param":{"num_deleted":"0","num_feature":"2","num_nodes":"23","size_leaf_vector":"1"}},{"base_weights":[1.2032036E-4,-4.802469E-2,5.4994244E-2,-4.1157056E-2,-5.1062413E-2,-5.790677E-2,2.9301724E-1,-6.354172E-3,2.2743693E-2,1.4043572E-2,4.7130197E-2,1.6000658E-2,-1.6586957E-3],"categories":[],"categories_nodes":[],"categories_segments":[],"categories_sizes":[],"default_left":[0,0,0,0,0,0,0,0,0,0,0,0,0],"id":34,"left_children":[1,3,-1,5,-1,7,9,-1,11,-1,-1,-1,-1],"loss_changes":[2.168416E2,1.778327E1,0E0,3.828004E1,0E0,3.5629349E0,2.4669762E0,0E0,3.26159E0,0E0,0E0,0E0,0E0],"parents":[2147483647,0,0,1,1,3,3,5,5,6,6,8,8],"right_children":[2,4,-1,6,-1,8,10,-1,12,-1,-1,-1,-1],"split_conditions":[3.3E1,2.9E1,5.4994244E-2,2E1,-5.1062413E-2,9E0,2.7E1,-6.354172E-3,1.1E1,1.4043572E-2,4.7130197E-2,1.6000658E-2,-1.6586957E-3],"split_indices":[1,1,0,1,0,1,1,0,1,0,0,0,0],"split_type":[0,0,0,0,0,0,0,0,0,0,0,0,0],"sum_hessian":[8E3,7.34E3,6.6E2,7.255E3,8.5E1,6.938E3,3.17E2,6.601E3,3.37E2,2.02E2,1.15E2,1.31E2,2.06E2],"tree_param":{"num_deleted":"0","num_feature":"2","num_nodes":"13","size_leaf_vector":"1"}},{"base_weights":[1.17484306E-4,-4.3083448E-2,4.9503114E-2,-3.6756095E-2,-4.6015546E-2,-5.2114837E-2,2.6705232E-1,-5.7188408E-3,1.7553292E-2,1.2646109E-2,4.245779E-2,1.4412718E-2,-1.4936106E-3],"categories":[],"categories_nodes":[],"categories_segments":[],"categories_sizes":[],"default_left":[0,0,0,0,0,0,0,0,0,0,0,0,0],"id":35,"left_children":[1,3,-1,5,-1,7,9,-1,11,-1,-1,-1,-1],"loss_changes":[1.7560802E2,1.4386591E1,0E0,3.1721874E1,0E0,2.8500557E0,1.4785728E0,0E0,2.6840239E0,0E0,0E0,0E0,0E0],"parents":[2147483647,0,0,1,1,3,3,5,5,6,6,8,8],"right_children":[2,4,-1,6,-1,8,10,-1,12,-1,-1,-1,-1],"split_conditions":[3.3E1,2.9E1,4.9503114E-2,2E1,-4.6015546E-2,9E0,2.7E1,-5.7188408E-3,1.1E1,1.2646109E-2,4.245779E-2,1.4412718E-2,-1.4936106E-3],"split_indices":[1,1,0,1,0,1,1,0,1,0,0,0,0],"split_type":[0,0,0,0,0,0,0,0,0,0,0,0,0],"sum_hessian":[8E3,7.34E3,6.6E2,7.255E3,8.5E1,6.938E3,3.17E2,6.601E3,3.37E2,2.02E2,1.15E2,1.31E2,2.06E2],"tree_param":{"num_deleted":"0","num_feature":"2","num_nodes":"13","size_leaf_vector":"1"}},{"base_weights":[1.1387968E-4,1.17264025E-1,-1.4325158E-1,4.450253E-2,2.6818973E-1,-3.7265298E-1,-4.236479E-2,9.307917E-2,-1.5887721E-1,2.2215605E-1,6.7403086E-2,-1.2920956E-1,-1.2683362E-1,6.386022E-2,-1.4236273E-1,1.9087368E-1,-2.2189654E-1,2.9852683E-2,-4.8439622E-2,-3.8188428E-1,5.7061017E-2,-1.04113154E-1,-2.3378495E-2,1.7927644E-4,4.6355218E-2,-1.6742192E-1,3.769341E-2,-0E0,-1.565479E-2,-1.6965363E-2,-7.625547E-2,1.8734565E-2,-4.077252E-2],"categories":[],"categories_nodes":[],"categories_segments":[],"categories_sizes":[],"default_left":[0,0,0,0,0,0,0,0,0,0,0,0,0,0,0,0,0,0,0,0,0,0,0,0,0,0,0,0,0,0,0,0,0],"id":36,"left_children":[1,3,5,7,9,11,13,15,-1,17,-1,19,-1,-1,21,23,25,-1,27,29,-1,-1,31,-1,-1,-1,-1,-1,-1,-1,-1,-1,-1],"loss_changes":[1.34136E2,4.564132E1,7.822515E1,2.266195E2,1.7043686E1,2.1633763E2,1.6563913E2,9.097031E1,0E0,2.8987965E1,0E0,1.4704195E2,0E0,0E0,2.2427621E2,1.13156425E2,6.032573E2,0E0,2.3693914E0,4.1365417E1,0E0,0E0,1.6029388E2,0E0,0E0,0E0,0E0,0E0,0E0,0E0,0E0,0E0,0E0],"parents":[2147483647,0,0,1,1,2,2,3,3,4,4,5,5,6,6,7,7,9,9,11,11,14,14,15,15,16,16,18,18,19,19,22,22],"right_children":[2,4,6,8,10,12,14,16,-1,18,-1,20,-1,-1,22,24,26,-1,28,30,-1,-1,32,-1,-1,-1,-1,-1,-1,-1,-1,-1,-1],"split_conditions":[1.2017E2,8.834E1,1.3964E2,8.613E1,1.2E2,1.3893E2,1.4335E2,7.509E1,-1.5887721E-1,1.0774E2,6.7403086E-2,1.3124E2,-1.2683362E-1,6.386022E-2,1.4629E2,5.347E1,8E1,2.9852683E-2,1.15E2,1.3107E2,5.7061017E-2,-1.04113154E-1,1.8643E2,1.7927644E-4,4.6355218E-2,-1.6742192E-1,3.769341E-2,-0E0,-1.565479E-2,-1.6965363E-2,-7.625547E-2,1.8734565E-2,-4.077252E-2],"split_indices":[0,0,0,0,0,0,0,0,0,0,0,0,0,0,0,0,0,0,0,0,0,0,0,0,0,0,0,0,0,0,0,0,0],"split_type":[0,0,0,0,0,0,0,0,0,0,0,0,0,0,0,0,0,0,0,0,0,0,0,0,0,0,0,0,0,0,0,0,0],"sum_hessian":[8E3,4.441E3,3.559E3,3.042E3,1.399E3,1.056E3,2.503E3,2.961E3,8.1E1,1.28E3,1.19E2,8.4E2,2.16E2,3.07E2,2.196E3,2.284E3,6.77E2,1.027E3,2.53E2,6.28E2,2.12E2,2.46E2,1.95E3,1.371E3,9.13E2,2.02E2,4.75E2,1.33E2,1.2E2,4.21E2,2.07E2,1.243E3,7.07E2],"tree_param":{"num_deleted":"0","num_feature":"2","num_nodes":"33","size_leaf_vector":"1"}},{"base_weights":[1.2235818E-5,-3.824886E-2,4.4006474E-2,-5.1177116E-3,6.363032E-2,1.3698833E-1,-3.7954554E-2,7.045981E-2,3.5930224E-2,1.7534966E-2,1.1985678E-3],"categories":[],"categories_nodes":[],"categories_segments":[],"categories_sizes":[],"default_left":[0,0,0,0,0,0,0,0,0,0,0],"id":37,"left_children":[1,3,-1,-1,5,7,-1,9,-1,-1,-1],"loss_changes":[1.3874695E2,9.547704E0,0E0,0E0,2.1684187E1,5.3646536E0,0E0,1.4365504E0,0E0,0E0,0E0],"parents":[2147483647,0,0,1,1,4,4,5,5,7,7],"right_children":[2,4,-1,-1,6,8,-1,10,-1,-1,-1],"split_conditions":[3.3E1,9E0,4.4006474E-2,-5.1177116E-3,2.9E1,2.7E1,-3.7954554E-2,1.1E1,3.5930224E-2,1.7534966E-2,1.1985678E-3],"split_indices":[1,1,0,0,1,1,0,1,0,0,0],"split_type":[0,0,0,0,0,0,0,0,0,0,0],"sum_hessian":[8E3,7.34E3,6.6E2,6.601E3,7.39E2,6.54E2,8.5E1,5.39E2,1.15E2,1.31E2,4.08E2],"tree_param":{"num_deleted":"0","num_feature":"2","num_nodes":"11","size_leaf_vector":"1"}},{"base_weights":[1.430319E-4,-3.4149867E-2,3.9612494E-2,-4.606007E-3,5.8641084E-2,1.2642623E-1,-3.4203228E-2,6.530023E-2,3.236815E-2,1.5794752E-2,1.0789856E-3],"categories":[],"categories_nodes":[],"categories_segments":[],"categories_sizes":[],"default_left":[0,0,0,0,0,0,0,0,0,0,0],"id":38,"left_children":[1,3,-1,-1,5,7,-1,9,-1,-1,-1],"loss_changes":[1.1228179E2,7.9898624E0,0E0,0E0,1.7985361E1,3.986659E0,0E0,1.0380509E0,0E0,0E0,0E0],"parents":[2147483647,0,0,1,1,4,4,5,5,7,7],"right_children":[2,4,-1,-1,6,8,-1,10,-1,-1,-1],"split_conditions":[3.3E1,9E0,3.9612494E-2,-4.606007E-3,2.9E1,2.7E1,-3.4203228E-2,1.1E1,3.236815E-2,1.5794752E-2,1.0789856E-3],"split_indices":[1,1,0,0,1,1,0,1,0,0,0],"split_type":[0,0,0,0,0,0,0,0,0,0,0],"sum_hessian":[8E3,7.34E3,6.6E2,6.601E3,7.39E2,6.54E2,8.5E1,5.39E2,1.15E2,1.31E2,4.08E2],"tree_param":{"num_deleted":"0","num_feature":"2","num_nodes":"11","size_leaf_vector":"1"}},{"base_weights":[2.5981618E-4,1.04996905E-1,-1.2761727E-1,2.8162384E-1,5.08957E-2,-6.2480116E-1,-8.160426E-2,6.1724838E-2,2.3199694E-2,-1.19741134E-1,1.2072231E-1,-3.2123122E-2,-7.711661E-2,7.478629E-2,-1.2175838E-1,1.3986254E-1,8.5112505E-2,-4.4599232E-1,-3.5362795E-2,-1.4470671E-1,1.4871024E-2,-5.715654E-3,-1.1504395E-1,5.7049256E-2,-1.2483394E-2],"categories":[],"categories_nodes":[],"categories_segments":[],"categories_sizes":[],"default_left":[0,0,0,0,0,0,0,0,0,0,0,0,0,0,0,0,0,0,0,0,0,0,0,0,0],"id":39,"left_children":[1,3,5,7,9,11,13,-1,-1,-1,15,-1,-1,-1,17,-1,19,21,23,-1,-1,-1,-1,-1,-1],"loss_changes":[1.0694838E2,3.910702E1,7.432681E1,7.9870453E0,2.8966125E2,1.4025497E0,1.03008804E2,0E0,0E0,0E0,1.3389328E2,0E0,0E0,0E0,8.310155E1,0E0,2.9817267E2,1.6206775E2,1.3134789E2,0E0,0E0,0E0,0E0,0E0,0E0],"parents":[2147483647,0,0,1,1,2,2,3,3,4,4,5,5,6,6,10,10,14,14,16,16,17,17,18,18],"right_children":[2,4,6,8,10,12,14,-1,-1,-1,16,-1,-1,-1,18,-1,20,22,24,-1,-1,-1,-1,-1,-1],"split_conditions":[1.2017E2,4.664E1,1.267E2,3.092E1,5E1,1.2505E2,1.3107E2,6.1724838E-2,2.3199694E-2,-1.19741134E-1,5.148E1,-3.2123122E-2,-7.711661E-2,7.478629E-2,1.3964E2,1.3986254E-1,5.347E1,1.3893E2,1.4335E2,-1.4470671E-1,1.4871024E-2,-5.715654E-3,-1.1504395E-1,5.7049256E-2,-1.2483394E-2],"split_indices":[0,0,0,0,0,0,0,0,0,0,0,0,0,0,0,0,0,0,0,0,0,0,0,0,0],"split_type":[0,0,0,0,0,0,0,0,0,0,0,0,0,0,0,0,0,0,0,0,0,0,0,0,0],"sum_hessian":[8E3,4.441E3,3.559E3,9.97E2,3.444E3,2.82E2,3.277E3,1.01E2,8.96E2,1.74E2,3.27E3,1.15E2,1.67E2,1.39E2,3.138E3,8E1,3.19E3,6.35E2,2.503E3,1.2E2,3.07E3,4.19E2,2.16E2,3.07E2,2.196E3],"tree_param":{"num_deleted":"0","num_feature":"2","num_nodes":"25","size_leaf_vector":"1"}},{"base_weights":[-0E0,3.5288144E-2,-3.4979668E-2,1.6623172E-1,-2.2444665E-2,-0E0,4.0497005E-1,-1.5235105E-1,3.885708E-2,1.3372777E-1,-1.3035563E-1,4.6206388E-1,8.693916E-3,1.18199565E-1,-1.5079445E-2,4.7207777E-3,1.2604897E-1,8.990551E-2,4.0306613E-2,-1.9596057E-1,2.9598668E-3],"categories":[],"categories_nodes":[],"categories_segments":[],"categories_sizes":[],"default_left":[0,0,0,0,0,0,0,0,0,0,0,0,0,0,0,0,0,0,0,0,0],"id":40,"left_children":[1,3,-1,5,7,9,11,-1,13,15,-1,17,-1,-1,19,-1,-1,-1,-1,-1,-1],"loss_changes":[9.571212E1,5.6582348E1,0E0,8.675531E1,4.7591568E2,2.2799998E2,1.1065826E1,0E0,3.0813348E2,1.08917786E2,0E0,5.9009705E0,0E0,0E0,4.176057E2,0E0,0E0,0E0,0E0,0E0,0E0],"parents":[2147483647,0,0,1,1,3,3,4,4,5,5,6,6,8,8,9,9,11,11,14,14],"right_children":[2,4,-1,6,8,10,12,-1,14,16,-1,18,-1,-1,20,-1,-1,-1,-1,-1,-1],"split_conditions":[1.8643E2,7.509E1,-3.4979668E-2,5.347E1,8E1,5.148E1,6.876E1,-1.5235105E-1,8.154E1,5E1,-1.3035563E-1,5.452E1,8.693916E-3,1.18199565E-1,8.421E1,4.7207777E-3,1.2604897E-1,8.990551E-2,4.0306613E-2,-1.9596057E-1,2.9598668E-3],"split_indices":[0,0,0,0,0,0,0,0,0,0,0,0,0,0,0,0,0,0,0,0,0],"split_type":[0,0,0,0,0,0,0,0,0,0,0,0,0,0,0,0,0,0,0,0,0],"sum_hessian":[8E3,7.293E3,7.07E2,2.284E3,5.009E3,1.371E3,9.13E2,2.02E2,4.807E3,1.251E3,1.2E2,7.47E2,1.66E2,2.24E2,4.583E3,1.171E3,8E1,6.7E1,6.8E2,1.07E2,4.476E3],"tree_param":{"num_deleted":"0","num_feature":"2","num_nodes":"21","size_leaf_vector":"1"}},{"base_weights":[2.0494191E-4,9.14783E-2,-1.1087272E-1,2.8420871E-2,2.2132994E-1,-5.6919005E-2,-6.822029E-2,7.2245024E-2,-1.4329885E-1,1.8087249E-1,5.680355E-2,6.706723E-2,-1.0433903E-1,1.5098248E-1,-1.7847377E-1,2.5105152E-1,-6.45012E-2,-6.815677E-2,-5.9943434E-2,9.680412E-4,3.8753737E-2,-1.3719098E-1,3.0985815E-2,3.4580402E-2,1.9121094E-2,-0E0,-1.6900988E-2,5.113381E-2,-1.0833425E-2],"categories":[],"categories_nodes":[],"categories_segments":[],"categories_sizes":[],"default_left":[0,0,0,0,0,0,0,0,0,0,0,0,0,0,0,0,0,0,0,0,0,0,0,0,0,0,0,0,0],"id":41,"left_children":[1,3,5,7,9,-1,11,13,-1,15,-1,-1,17,19,21,23,25,-1,27,-1,-1,-1,-1,-1,-1,-1,-1,-1,-1],"loss_changes":[8.0933784E1,3.386779E1,6.3179176E1,1.813851E2,1.2045738E1,0E0,8.188949E1,5.8224754E1,0E0,2.3940628E1,0E0,0E0,7.298535E1,7.240179E1,4.061792E2,3.9253235E-1,2.399542E0,0E0,7.7079865E1,0E0,0E0,0E0,0E0,0E0,0E0,0E0,0E0,0E0,0E0],"parents":[2147483647,0,0,1,1,2,2,3,3,4,4,6,6,7,7,9,9,12,12,13,13,14,14,15,15,16,16,18,18],"right_children":[2,4,6,8,10,-1,12,14,-1,16,-1,-1,18,20,22,24,26,-1,28,-1,-1,-1,-1,-1,-1,-1,-1,-1,-1],"split_conditions":[1.2017E2,8.834E1,1.267E2,8.613E1,1.2E2,-5.6919005E-2,1.3107E2,7.509E1,-1.4329885E-1,1.0774E2,5.680355E-2,6.706723E-2,1.3124E2,5.533E1,8E1,9.013E1,1.15E2,-6.815677E-2,1.3893E2,9.680412E-4,3.8753737E-2,-1.3719098E-1,3.0985815E-2,3.4580402E-2,1.9121094E-2,-0E0,-1.6900988E-2,5.113381E-2,-1.0833425E-2],"split_indices":[0,0,0,0,0,0,0,0,0,0,0,0,0,0,0,0,0,0,0,0,0,0,0,0,0,0,0,0,0],"split_type":[0,0,0,0,0,0,0,0,0,0,0,0,0,0,0,0,0,0,0,0,0,0,0,0,0,0,0,0,0],"sum_hessian":[8E3,4.441E3,3.559E3,3.042E3,1.399E3,2.82E2,3.277E3,2.961E3,8.1E1,1.28E3,1.19E2,1.39E2,3.138E3,2.284E3,6.77E2,1.027E3,2.53E2,2.07E2,2.931E3,1.457E3,8.27E2,2.02E2,4.75E2,3.31E2,6.96E2,1.33E2,1.2E2,2.12E2,2.719E3],"tree_param":{"num_deleted":"0","num_feature":"2","num_nodes":"29","size_leaf_vector":"1"}},{"base_weights":[3.4354068E-4,-2.928482E-2,3.445212E-2,-3.9823004E-3,5.125894E-2,1.09050654E-1,-2.7321586E-2,5.555679E-2,2.7092684E-2,2.4091857E-2,-0E0],"categories":[],"categories_nodes":[],"categories_segments":[],"categories_sizes":[],"default_left":[0,0,0,0,0,0,0,0,0,0,0],"id":42,"left_children":[1,3,-1,-1,5,7,-1,9,-1,-1,-1],"loss_changes":[8.475201E1,6.118613E0,0E0,0E0,1.2264589E1,2.3920074E0,0E0,5.994771E0,0E0,0E0,0E0],"parents":[2147483647,0,0,1,1,4,4,5,5,7,7],"right_children":[2,4,-1,-1,6,8,-1,10,-1,-1,-1],"split_conditions":[3.3E1,9E0,3.445212E-2,-3.9823004E-3,2.9E1,2.7E1,-2.7321586E-2,1.1E1,2.7092684E-2,2.4091857E-2,-0E0],"split_indices":[1,1,0,0,1,1,0,1,0,0,0],"split_type":[0,0,0,0,0,0,0,0,0,0,0],"sum_hessian":[8E3,7.34E3,6.6E2,6.601E3,7.39E2,6.54E2,8.5E1,5.39E2,1.15E2,1.31E2,4.08E2],"tree_param":{"num_deleted":"0","num_feature":"2","num_nodes":"11","size_leaf_vector":"1"}},{"base_weights":[2.9331844E-4,3.1087479E-2,-3.0283226E-2,2.4801992E-1,-1.7106271E-3,5.481367E-2,2.0246817E-2,-1.08474724E-1,2.7610473E-2,1.1315612E-1,1.1153812E-2,-1.1747688E-1,3.7067283E-3],"categories":[],"categories_nodes":[],"categories_segments":[],"categories_sizes":[],"default_left":[0,0,0,0,0,0,0,0,0,0,0,0,0],"id":43,"left_children":[1,3,-1,5,7,-1,-1,-1,9,-1,11,-1,-1],"loss_changes":[7.197727E1,5.4360134E1,0E0,6.026478E0,2.1056773E2,0E0,0E0,0E0,9.9798874E1,0E0,1.743762E2,0E0,0E0],"parents":[2147483647,0,0,1,1,3,3,4,4,8,8,10,10],"right_children":[2,4,-1,6,8,-1,-1,-1,10,-1,12,-1,-1],"split_conditions":[1.8643E2,4.664E1,-3.0283226E-2,3.092E1,5E1,5.481367E-2,2.0246817E-2,-1.08474724E-1,5.148E1,1.1315612E-1,5.347E1,-1.1747688E-1,3.7067283E-3],"split_indices":[0,0,0,0,0,0,0,0,0,0,0,0,0],"split_type":[0,0,0,0,0,0,0,0,0,0,0,0,0],"sum_hessian":[8E3,7.293E3,7.07E2,9.97E2,6.296E3,1.01E2,8.96E2,1.74E2,6.122E3,8E1,6.042E3,1.2E2,5.922E3],"tree_param":{"num_deleted":"0","num_feature":"2","num_nodes":"13","size_leaf_vector":"1"}},{"base_weights":[2.5582366E-4,-2.5852235E-2,3.0533751E-2,-3.5417152E-3,4.6003725E-2,9.844026E-2,-2.3762342E-2,2.4301559E-2,4.274869E-2,-1.160273E-2,1.3414601E-2],"categories":[],"categories_nodes":[],"categories_segments":[],"categories_sizes":[],"default_left":[0,0,0,0,0,0,0,0,0,0,0],"id":44,"left_children":[1,3,-1,-1,5,7,-1,-1,9,-1,-1],"loss_changes":[6.653144E1,4.9412036E0,0E0,0E0,9.637154E0,2.405785E0,0E0,0E0,7.800883E0,0E0,0E0],"parents":[2147483647,0,0,1,1,4,4,5,5,8,8],"right_children":[2,4,-1,-1,6,8,-1,-1,10,-1,-1],"split_conditions":[3.3E1,9E0,3.0533751E-2,-3.5417152E-3,2.9E1,1.1E1,-2.3762342E-2,2.4301559E-2,1.5E1,-1.160273E-2,1.3414601E-2],"split_indices":[1,1,0,0,1,1,0,0,1,0,0],"split_type":[0,0,0,0,0,0,0,0,0,0,0],"sum_hessian":[8E3,7.34E3,6.6E2,6.601E3,7.39E2,6.54E2,8.5E1,1.31E2,5.23E2,1.51E2,3.72E2],"tree_param":{"num_deleted":"0","num_feature":"2","num_nodes":"11","size_leaf_vector":"1"}},{"base_weights":[1.09064604E-4,-2.3267018E-2,2.7484993E-2,-3.1875812E-3,4.00553E-2,8.863624E-2,-2.1413742E-2,2.1889813E-2,3.656906E-2,-7.2586075E-3,1.3895442E-2],"categories":[],"categories_nodes":[],"categories_segments":[],"categories_sizes":[],"default_left":[0,0,0,0,0,0,0,0,0,0,0],"id":45,"left_children":[1,3,-1,-1,5,7,-1,-1,9,-1,-1],"loss_changes":[5.3907566E1,3.9212725E0,0E0,0E0,7.902171E0,1.8797755E0,0E0,0E0,6.5299344E0,0E0,0E0],"parents":[2147483647,0,0,1,1,4,4,5,5,8,8],"right_children":[2,4,-1,-1,6,8,-1,-1,10,-1,-1],"split_conditions":[3.3E1,9E0,2.7484993E-2,-3.1875812E-3,2.9E1,1.1E1,-2.1413742E-2,2.1889813E-2,2E1,-7.2586075E-3,1.3895442E-2],"split_indices":[1,1,0,0,1,1,0,0,1,0,0],"split_type":[0,0,0,0,0,0,0,0,0,0,0],"sum_hessian":[8E3,7.34E3,6.6E2,6.601E3,7.39E2,6.54E2,8.5E1,1.31E2,5.23E2,2.06E2,3.17E2],"tree_param":{"num_deleted":"0","num_feature":"2","num_nodes":"11","size_leaf_vector":"1"}},{"base_weights":[-0E0,-2.0939728E-2,2.474066E-2,-2.8688654E-3,3.4708034E-2,7.981618E-2,-1.9297268E-2,3.2961633E-2,2.1103717E-2,1.9717416E-2,-0E0],"categories":[],"categories_nodes":[],"categories_segments":[],"categories_sizes":[],"default_left":[0,0,0,0,0,0,0,0,0,0,0],"id":46,"left_children":[1,3,-1,-1,5,7,-1,9,-1,-1,-1],"loss_changes":[4.367865E1,3.106317E0,0E0,0E0,6.4838247E0,1.5801921E0,0E0,4.545156E0,0E0,0E0,0E0],"parents":[2147483647,0,0,1,1,4,4,5,5,7,7],"right_children":[2,4,-1,-1,6,8,-1,10,-1,-1,-1],"split_conditions":[3.3E1,9E0,2.474066E-2,-2.8688654E-3,2.9E1,2.7E1,-1.9297268E-2,1.1E1,2.1103717E-2,1.9717416E-2,-0E0],"split_indices":[1,1,0,0,1,1,0,1,0,0,0],"split_type":[0,0,0,0,0,0,0,0,0,0,0],"sum_hessian":[8E3,7.34E3,6.6E2,6.601E3,7.39E2,6.54E2,8.5E1,5.39E2,1.15E2,1.31E2,4.08E2],"tree_param":{"num_deleted":"0","num_feature":"2","num_nodes":"11","size_leaf_vector":"1"}},{"base_weights":[-0E0,-1.88192E-2,2.2270371E-1,-2.5820364E-3,3.0154444E-2,1.5138006E-1,3.3009287E-2,7.216743E-2,-1.7389974E-2,2.87799E-2,3.2115545E-2,2.8178329E-2,1.9011525E-2,-4.0272056E-4,1.3360835E-2,1.776061E-2,-0E0],"categories":[],"categories_nodes":[],"categories_segments":[],"categories_sizes":[],"default_left":[0,0,0,0,0,0,0,0,0,0,0,0,0,0,0,0,0],"id":47,"left_children":[1,3,5,-1,7,9,-1,11,-1,-1,13,15,-1,-1,-1,-1,-1],"loss_changes":[3.5383484E1,2.4744644E0,1.9815826E-1,0E0,5.339192E0,4.194434E0,0E0,1.2101214E0,0E0,0E0,2.3344584E0,3.7350276E0,0E0,0E0,0E0,0E0,0E0],"parents":[2147483647,0,0,1,1,2,2,4,4,5,5,7,7,10,10,11,11],"right_children":[2,4,6,-1,8,10,-1,12,-1,-1,14,16,-1,-1,-1,-1,-1],"split_conditions":[3.3E1,9E0,4.5E1,-2.5820364E-3,2.9E1,3.6E1,3.3009287E-2,2.7E1,-1.7389974E-2,2.87799E-2,4.4E1,1.1E1,1.9011525E-2,-4.0272056E-4,1.3360835E-2,1.776061E-2,-0E0],"split_indices":[1,1,1,0,1,1,0,1,0,0,1,1,0,0,0,0,0],"split_type":[0,0,0,0,0,0,0,0,0,0,0,0,0,0,0,0,0],"sum_hessian":[8E3,7.34E3,6.6E2,6.601E3,7.39E2,4.54E2,2.06E2,6.54E2,8.5E1,1.72E2,2.82E2,5.39E2,1.15E2,1.36E2,1.46E2,1.31E2,4.08E2],"tree_param":{"num_deleted":"0","num_feature":"2","num_nodes":"17","size_leaf_vector":"1"}},{"base_weights":[-0E0,-1.6910816E-2,2.0205915E-2,-2.3238682E-3,2.6053349E-2,6.527741E-2,-1.5671197E-2,-0E0,1.10595655E-2,1.5998006E-2,-6.536269E-3],"categories":[],"categories_nodes":[],"categories_segments":[],"categories_sizes":[],"default_left":[0,0,0,0,0,0,0,0,0,0,0],"id":48,"left_children":[1,3,-1,-1,5,7,-1,9,-1,-1,-1],"loss_changes":[2.908659E1,1.9682672E0,0E0,0E0,4.4007955E0,1.0985374E0,0E0,4.26272E0,0E0,0E0,0E0],"parents":[2147483647,0,0,1,1,4,4,5,5,7,7],"right_children":[2,4,-1,-1,6,8,-1,10,-1,-1,-1],"split_conditions":[3.3E1,9E0,2.0205915E-2,-2.3238682E-3,2.9E1,2E1,-1.5671197E-2,1.1E1,1.10595655E-2,1.5998006E-2,-6.536269E-3],"split_indices":[1,1,0,0,1,1,0,1,0,0,0],"split_type":[0,0,0,0,0,0,0,0,0,0,0],"sum_hessian":[8E3,7.34E3,6.6E2,6.601E3,7.39E2,6.54E2,8.5E1,3.37E2,3.17E2,1.31E2,2.06E2],"tree_param":{"num_deleted":"0","num_feature":"2","num_nodes":"11","size_leaf_vector":"1"}},{"base_weights":[-0E0,7.807454E-2,-9.502982E-2,2.2710392E-2,1.9121385E-1,-2.9974478E-1,-4.5830347E-3,1.06051855E-1,-6.258224E-1,1.5714797E-1,4.699401E-2,-9.4353445E-2,-1.04829036E-1,5.086283E-2,-8.10803E-2,1.7995996E-2,1.0344469E-1,-1.8104915E-1,-1.2680457E-2,2.2400029E-2,-7.466824E-2,-2.9274428E-1,4.4499956E-2,-9.078163E-2,1.850189E-2,1.3414002E-2,-1.240167E-1,6.267419E-2,-1.2651628E-1,-0E0,-1.8603548E-2,-1.103489E-2,-6.1331213E-2,2.3881165E-2,-2.1877348E-2],"categories":[],"categories_nodes":[],"categories_segments":[],"categories_sizes":[],"default_left":[0,0,0,0,0,0,0,0,0,0,0,0,0,0,0,0,0,0,0,0,0,0,0,0,0,0,0,0,0,0,0,0,0,0,0],"id":49,"left_children":[1,3,5,7,9,11,13,15,17,19,-1,21,-1,-1,23,25,-1,-1,27,-1,29,31,-1,-1,33,-1,-1,-1,-1,-1,-1,-1,-1,-1,-1],"loss_changes":[5.9225975E1,2.5680483E1,6.287164E1,1.5934183E2,6.948345E0,1.5098288E2,9.407096E1,2.1108289E2,2.2362665E2,2.1362276E1,0E0,8.8596985E1,0E0,0E0,1.8978496E2,3.5252667E2,0E0,0E0,1.8817267E2,0E0,2.771575E0,2.9473404E1,0E0,0E0,1.0223936E2,0E0,0E0,0E0,0E0,0E0,0E0,0E0,0E0,0E0,0E0],"parents":[2147483647,0,0,1,1,2,2,3,3,4,4,5,5,6,6,7,7,8,8,9,9,11,11,14,14,15,15,18,18,20,20,21,21,24,24],"right_children":[2,4,6,8,10,12,14,16,18,20,-1,22,-1,-1,24,26,-1,-1,28,-1,30,32,-1,-1,34,-1,-1,-1,-1,-1,-1,-1,-1,-1,-1],"split_conditions":[1.2017E2,8.834E1,1.3964E2,8.154E1,1.2E2,1.3893E2,1.4335E2,8E1,8.421E1,1.0774E2,4.699401E-2,1.3124E2,-1.04829036E-1,5.086283E-2,1.4629E2,7.509E1,1.0344469E-1,-1.8104915E-1,8.613E1,2.2400029E-2,1.15E2,1.3107E2,4.4499956E-2,-9.078163E-2,1.7556E2,1.3414002E-2,-1.240167E-1,6.267419E-2,-1.2651628E-1,-0E0,-1.8603548E-2,-1.103489E-2,-6.1331213E-2,2.3881165E-2,-2.1877348E-2],"split_indices":[0,0,0,0,0,0,0,0,0,0,0,0,0,0,0,0,0,0,0,0,0,0,0,0,0,0,0,0,0,0,0,0,0,0,0],"split_type":[0,0,0,0,0,0,0,0,0,0,0,0,0,0,0,0,0,0,0,0,0,0,0,0,0,0,0,0,0,0,0,0,0,0,0],"sum_hessian":[8E3,4.441E3,3.559E3,3.042E3,1.399E3,1.056E3,2.503E3,2.71E3,3.32E2,1.28E3,1.19E2,8.4E2,2.16E2,3.07E2,2.196E3,2.486E3,2.24E2,1.07E2,2.25E2,1.027E3,2.53E2,6.28E2,2.12E2,2.46E2,1.95E3,2.284E3,2.02E2,1.44E2,8.1E1,1.33E2,1.2E2,4.21E2,2.07E2,1.033E3,9.17E2],"tree_param":{"num_deleted":"0","num_feature":"2","num_nodes":"35","size_leaf_vector":"1"}},{"base_weights":[-0E0,-1.4718712E-2,1.735006E-1,-2.0971533E-3,2.7572973E-2,1.07747704E-1,2.6888255E-2,2.1233736E-2,-0E0,2.1277476E-2,7.8274645E-3,-1.1875857E-2,2.2765877E-2,-0E0,7.2989315E-3,8.13369E-3,-1.1525455E-2],"categories":[],"categories_nodes":[],"categories_segments":[],"categories_sizes":[],"default_left":[0,0,0,0,0,0,0,0,0,0,0,0,0,0,0,0,0],"id":50,"left_children":[1,3,5,-1,7,9,-1,-1,11,-1,13,-1,15,-1,-1,-1,-1],"loss_changes":[2.1488083E1,1.8758352E0,3.5028076E-1,0E0,5.3889055E0,2.5672307E0,0E0,0E0,2.3811214E0,0E0,7.6579446E-1,0E0,3.3726685E0,0E0,0E0,0E0,0E0],"parents":[2147483647,0,0,1,1,2,2,4,4,5,5,8,8,10,10,12,12],"right_children":[2,4,6,-1,8,10,-1,-1,12,-1,14,-1,16,-1,-1,-1,-1],"split_conditions":[3.3E1,9E0,4.5E1,-2.0971533E-3,1.1E1,3.6E1,2.6888255E-2,2.1233736E-2,1.5E1,2.1277476E-2,4.4E1,-1.1875857E-2,2.9E1,-0E0,7.2989315E-3,8.13369E-3,-1.1525455E-2],"split_indices":[1,1,1,0,1,1,0,0,1,0,1,0,1,0,0,0,0],"split_type":[0,0,0,0,0,0,0,0,0,0,0,0,0,0,0,0,0],"sum_hessian":[8E3,7.34E3,6.6E2,6.601E3,7.39E2,4.54E2,2.06E2,1.31E2,6.08E2,1.72E2,2.82E2,1.51E2,4.57E2,1.36E2,1.46E2,3.72E2,8.5E1],"tree_param":{"num_deleted":"0","num_feature":"2","num_nodes":"17","size_leaf_vector":"1"}},{"base_weights":[-0E0,-1.3246348E-2,1.5797226E-2,-1.8874722E-3,2.3472257E-2,1.912645E-2,-0E0,-1.0696105E-2,1.8298328E-2,7.3224837E-3,-1.0386313E-2],"categories":[],"categories_nodes":[],"categories_segments":[],"categories_sizes":[],"default_left":[0,0,0,0,0,0,0,0,0,0,0],"id":51,"left_children":[1,3,-1,-1,5,-1,7,-1,9,-1,-1],"loss_changes":[1.7783504E1,1.471603E0,0E0,0E0,4.421138E0,0E0,1.8923327E0,0E0,2.7743576E0,0E0,0E0],"parents":[2147483647,0,0,1,1,4,4,6,6,8,8],"right_children":[2,4,-1,-1,6,-1,8,-1,10,-1,-1],"split_conditions":[3.3E1,9E0,1.5797226E-2,-1.8874722E-3,1.1E1,1.912645E-2,1.5E1,-1.0696105E-2,2.9E1,7.3224837E-3,-1.0386313E-2],"split_indices":[1,1,0,0,1,0,1,0,1,0,0],"split_type":[0,0,0,0,0,0,0,0,0,0,0],"sum_hessian":[8E3,7.34E3,6.6E2,6.601E3,7.39E2,1.31E2,6.08E2,1.51E2,4.57E2,3.72E2,8.5E1],"tree_param":{"num_deleted":"0","num_feature":"2","num_nodes":"11","size_leaf_vector":"1"}},{"base_weights":[-0E0,-1.1921323E-2,1.4219864E-1,-1.6987633E-3,1.9780975E-2,8.159961E-2,2.2640327E-2,1.7228296E-2,-0E0,1.7591402E-2,-0E0,-9.633546E-3,1.4278519E-2,-4.8372475E-4,5.0050346E-3,6.5922136E-3,-9.359761E-3],"categories":[],"categories_nodes":[],"categories_segments":[],"categories_sizes":[],"default_left":[0,0,0,0,0,0,0,0,0,0,0,0,0,0,0,0,0],"id":52,"left_children":[1,3,5,-1,7,9,-1,-1,11,-1,13,-1,15,-1,-1,-1,-1],"loss_changes":[1.4409006E1,1.1514676E0,2.7439308E-1,0E0,3.6283946E0,2.323997E0,0E0,0E0,1.5040144E0,0E0,3.7144607E-1,0E0,2.2809854E0,0E0,0E0,0E0,0E0],"parents":[2147483647,0,0,1,1,2,2,4,4,5,5,8,8,10,10,12,12],"right_children":[2,4,6,-1,8,10,-1,-1,12,-1,14,-1,16,-1,-1,-1,-1],"split_conditions":[3.3E1,9E0,4.5E1,-1.6987633E-3,1.1E1,3.6E1,2.2640327E-2,1.7228296E-2,1.5E1,1.7591402E-2,4.4E1,-9.633546E-3,2.9E1,-4.8372475E-4,5.0050346E-3,6.5922136E-3,-9.359761E-3],"split_indices":[1,1,1,0,1,1,0,0,1,0,1,0,1,0,0,0,0],"split_type":[0,0,0,0,0,0,0,0,0,0,0,0,0,0,0,0,0],"sum_hessian":[8E3,7.34E3,6.6E2,6.601E3,7.39E2,4.54E2,2.06E2,1.31E2,6.08E2,1.72E2,2.82E2,1.51E2,4.57E2,1.36E2,1.46E2,3.72E2,8.5E1],"tree_param":{"num_deleted":"0","num_feature":"2","num_nodes":"17","size_leaf_vector":"1"}},{"base_weights":[-0E0,2.0646223E-1,-2.8436534E-2,4.7731373E-2,1.6428461E-2,-9.934667E-2,-2.2419947E-3,9.9877946E-2,-1.57354E-2,-1.07354224E-1,2.06405E-3,3.7417684E-2,-4.3549147E-3],"categories":[],"categories_nodes":[],"categories_segments":[],"categories_sizes":[],"default_left":[0,0,0,0,0,0,0,0,0,0,0,0,0],"id":53,"left_children":[1,3,5,-1,-1,-1,7,-1,9,-1,11,-1,-1],"loss_changes":[4.820509E1,4.90662E0,1.6709145E2,0E0,0E0,0E0,8.243937E1,0E0,1.3780856E2,0E0,1.1585523E2,0E0,0E0],"parents":[2147483647,0,0,1,1,2,2,6,6,8,8,10,10],"right_children":[2,4,6,-1,-1,-1,8,-1,10,-1,12,-1,-1],"split_conditions":[4.664E1,3.092E1,5E1,4.7731373E-2,1.6428461E-2,-9.934667E-2,5.148E1,9.9877946E-2,5.347E1,-1.07354224E-1,6.876E1,3.7417684E-2,-4.3549147E-3],"split_indices":[0,0,0,0,0,0,0,0,0,0,0,0,0],"split_type":[0,0,0,0,0,0,0,0,0,0,0,0,0],"sum_hessian":[8E3,9.97E2,7.003E3,1.01E2,8.96E2,1.74E2,6.829E3,8E1,6.749E3,1.2E2,6.629E3,7.47E2,5.882E3],"tree_param":{"num_deleted":"0","num_feature":"2","num_nodes":"13","size_leaf_vector":"1"}},{"base_weights":[-0E0,2.4448866E-2,-2.4173427E-2,-5.6444886E-3,1.7884633E-1,2.7033327E-2,-8.141023E-2,5.5822056E-2,5.822079E-2,9.2520635E-4,4.6052493E-2,-2.599507E-1,1.6198471E-1,4.1544563E-3,-9.417125E-2,1.2446268E-2,-1.9752856E-1,2.3427704E-2,-0E0],"categories":[],"categories_nodes":[],"categories_segments":[],"categories_sizes":[],"default_left":[0,0,0,0,0,0,0,0,0,0,0,0,0,0,0,0,0,0,0],"id":54,"left_children":[1,3,-1,5,7,9,-1,-1,11,13,-1,15,17,-1,-1,-1,-1,-1,-1],"loss_changes":[4.573227E1,3.5623417E1,0E0,1.6775186E2,5.0731285E1,6.108404E1,0E0,0E0,3.0921654E1,2.0155222E2,0E0,1.5986519E2,1.00163E1,0E0,0E0,0E0,0E0,0E0,0E0],"parents":[2147483647,0,0,1,1,3,3,4,4,5,5,8,8,9,9,11,11,12,12],"right_children":[2,4,-1,6,8,10,-1,-1,12,14,-1,16,18,-1,-1,-1,-1,-1,-1],"split_conditions":[1.8643E2,1.4629E2,-2.4173427E-2,1.4335E2,1.5418E2,1.3964E2,-8.141023E-2,5.5822056E-2,1.5786E2,1.3893E2,4.6052493E-2,1.5511E2,1.7556E2,4.1544563E-3,-9.417125E-2,1.2446268E-2,-1.9752856E-1,2.3427704E-2,-0E0],"split_indices":[0,0,0,0,0,0,0,0,0,0,0,0,0,0,0,0,0,0,0],"split_type":[0,0,0,0,0,0,0,0,0,0,0,0,0,0,0,0,0,0,0],"sum_hessian":[8E3,7.293E3,7.07E2,6.05E3,1.243E3,5.804E3,2.46E2,2.79E2,9.64E2,5.497E3,3.07E2,2.13E2,7.51E2,5.281E3,2.16E2,1.7E2,4.3E1,5.41E2,2.1E2],"tree_param":{"num_deleted":"0","num_feature":"2","num_nodes":"19","size_leaf_vector":"1"}},{"base_weights":[-0E0,6.2498514E-2,-7.610308E-2,8.912195E-3,1.717847E-1,-4.9164814E-1,-3.7153915E-2,8.34346E-2,-5.677819E-1,1.407879E-1,4.1791078E-2,-2.0446602E-2,-6.274903E-2,6.4272024E-2,-7.0650324E-2,2.1949378E-3,9.3658835E-2,-1.6381781E-1,-9.505128E-3,2.0264996E-2,-7.0767246E-2,-3.3801156E-1,-0E0,1.0601307E-2,-1.117148E-1,5.5614125E-2,-1.1315688E-1,-0E0,-1.8153727E-2,-4.9916073E-3,-8.479752E-2,4.1462194E-2,-6.1219647E-3],"categories":[],"categories_nodes":[],"categories_segments":[],"categories_sizes":[],"default_left":[0,0,0,0,0,0,0,0,0,0,0,0,0,0,0,0,0,0,0,0,0,0,0,0,0,0,0,0,0,0,0,0,0],"id":55,"left_children":[1,3,5,7,9,11,13,15,17,19,-1,-1,-1,-1,21,23,-1,-1,25,-1,27,29,31,-1,-1,-1,-1,-1,-1,-1,-1,-1,-1],"loss_changes":[3.796911E1,2.4204935E1,5.231278E1,1.2598179E2,5.0349464E0,2.5923767E0,6.897572E1,1.785093E2,1.8250085E2,1.8097925E1,0E0,0E0,0E0,0E0,5.6995934E1,2.7901663E2,0E0,0E0,1.498238E2,0E0,2.7156165E0,8.441875E1,6.1182713E1,0E0,0E0,0E0,0E0,0E0,0E0,0E0,0E0,0E0,0E0],"parents":[2147483647,0,0,1,1,2,2,3,3,4,4,5,5,6,6,7,7,8,8,9,9,14,14,15,15,18,18,20,20,21,21,22,22],"right_children":[2,4,6,8,10,12,14,16,18,20,-1,-1,-1,-1,22,24,-1,-1,26,-1,28,30,32,-1,-1,-1,-1,-1,-1,-1,-1,-1,-1],"split_conditions":[1.2017E2,8.834E1,1.267E2,8.154E1,1.2E2,1.2505E2,1.3107E2,8E1,8.421E1,1.0774E2,4.1791078E-2,-2.0446602E-2,-6.274903E-2,6.4272024E-2,1.3964E2,7.509E1,9.3658835E-2,-1.6381781E-1,8.613E1,2.0264996E-2,1.15E2,1.3893E2,1.4335E2,1.0601307E-2,-1.117148E-1,5.5614125E-2,-1.1315688E-1,-0E0,-1.8153727E-2,-4.9916073E-3,-8.479752E-2,4.1462194E-2,-6.1219647E-3],"split_indices":[0,0,0,0,0,0,0,0,0,0,0,0,0,0,0,0,0,0,0,0,0,0,0,0,0,0,0,0,0,0,0,0,0],"split_type":[0,0,0,0,0,0,0,0,0,0,0,0,0,0,0,0,0,0,0,0,0,0,0,0,0,0,0,0,0,0,0,0,0],"sum_hessian":[8E3,4.441E3,3.559E3,3.042E3,1.399E3,2.82E2,3.277E3,2.71E3,3.32E2,1.28E3,1.19E2,1.15E2,1.67E2,1.39E2,3.138E3,2.486E3,2.24E2,1.07E2,2.25E2,1.027E3,2.53E2,6.35E2,2.503E3,2.284E3,2.02E2,1.44E2,8.1E1,1.33E2,1.2E2,4.19E2,2.16E2,3.07E2,2.196E3],"tree_param":{"num_deleted":"0","num_feature":"2","num_nodes":"33","size_leaf_vector":"1"}},{"base_weights":[-0E0,2.1098427E-2,-2.114817E-2,-7.3263715E-3,1.6738248E-1,2.15708E-2,-7.269246E-2,5.0869823E-2,5.78117E-2,4.4359156E-5,3.732942E-2,-2.2405423E-1,1.5124455E-1,3.3309013E-3,-7.6356836E-2,1.1817537E-2,-1.7762636E-1,2.1700352E-2,-0E0],"categories":[],"categories_nodes":[],"categories_segments":[],"categories_sizes":[],"default_left":[0,0,0,0,0,0,0,0,0,0,0,0,0,0,0,0,0,0,0],"id":56,"left_children":[1,3,-1,5,7,9,-1,-1,11,13,-1,15,17,-1,-1,-1,-1,-1,-1],"loss_changes":[3.4911823E1,3.193093E1,0E0,1.3289584E2,4.082889E1,4.02183E1,0E0,0E0,2.4719582E1,1.3237924E2,0E0,1.3047017E2,8.321131E0,0E0,0E0,0E0,0E0,0E0,0E0],"parents":[2147483647,0,0,1,1,3,3,4,4,5,5,8,8,9,9,11,11,12,12],"right_children":[2,4,-1,6,8,10,-1,-1,12,14,-1,16,18,-1,-1,-1,-1,-1,-1],"split_conditions":[1.8643E2,1.4629E2,-2.114817E-2,1.4335E2,1.5418E2,1.3964E2,-7.269246E-2,5.0869823E-2,1.5786E2,1.3893E2,3.732942E-2,1.5511E2,1.7556E2,3.3309013E-3,-7.6356836E-2,1.1817537E-2,-1.7762636E-1,2.1700352E-2,-0E0],"split_indices":[0,0,0,0,0,0,0,0,0,0,0,0,0,0,0,0,0,0,0],"split_type":[0,0,0,0,0,0,0,0,0,0,0,0,0,0,0,0,0,0,0],"sum_hessian":[8E3,7.293E3,7.07E2,6.05E3,1.243E3,5.804E3,2.46E2,2.79E2,9.64E2,5.497E3,3.07E2,2.13E2,7.51E2,5.281E3,2.16E2,1.7E2,4.3E1,5.41E2,2.1E2],"tree_param":{"num_deleted":"0","num_feature":"2","num_nodes":"19","size_leaf_vector":"1"}},{"base_weights":[-0E0,-1.2724461E-2,1.10338815E-1,-1.6061269E-3,9.576146E-3,6.696468E-2,1.9874325E-2,2.8171858E-2,-5.38282E-2,9.704879E-3,-0E0,-1.5704704E-2,-0E0,-8.2660996E-4,4.6658548E-4],"categories":[],"categories_nodes":[],"categories_segments":[],"categories_sizes":[],"default_left":[0,0,0,0,0,0,0,0,0,0,0,0,0,0,0],"id":57,"left_children":[1,3,5,-1,7,9,-1,-1,11,-1,13,-1,-1,-1,-1],"loss_changes":[1.1638589E1,5.9638715E-1,6.3108826E-1,0E0,1.1611774E1,1.3011136E0,0E0,0E0,2.5638256E0,0E0,7.2999233E-3,0E0,0E0,0E0,0E0],"parents":[2147483647,0,0,1,1,2,2,4,4,5,5,8,8,10,10],"right_children":[2,4,6,-1,8,10,-1,-1,12,-1,14,-1,-1,-1,-1],"split_conditions":[2.7E1,9E0,4.5E1,-1.6061269E-3,1.1E1,3.8E1,1.9874325E-2,2.8171858E-2,1.5E1,9.704879E-3,4.4E1,-1.5704704E-2,-0E0,-8.2660996E-4,4.6658548E-4],"split_indices":[1,1,1,0,1,1,0,0,1,0,1,0,0,0,0],"split_type":[0,0,0,0,0,0,0,0,0,0,0,0,0,0,0],"sum_hessian":[8E3,7.14E3,8.6E2,6.601E3,5.39E2,6.54E2,2.06E2,1.31E2,4.08E2,4.49E2,2.05E2,1.51E2,2.57E2,5.9E1,1.46E2],"tree_param":{"num_deleted":"0","num_feature":"2","num_nodes":"15","size_leaf_vector":"1"}},{"base_weights":[-0E0,-1.1424591E-2,1.0050041E-1,-1.4455471E-3,7.133349E-3,6.0282677E-2,1.7896475E-2,2.5376016E-2,-4.803015E-2,8.736567E-3,-0E0,-1.414457E-2,-0E0,-7.4530445E-4,4.2026318E-4],"categories":[],"categories_nodes":[],"categories_segments":[],"categories_sizes":[],"default_left":[0,0,0,0,0,0,0,0,0,0,0,0,0,0,0],"id":58,"left_children":[1,3,5,-1,7,9,-1,-1,11,-1,13,-1,-1,-1,-1],"loss_changes":[9.628439E0,4.7498327E-1,3.137598E-1,0E0,9.416079E0,1.0544708E0,0E0,0E0,2.0975266E0,0E0,5.929203E-3,0E0,0E0,0E0,0E0],"parents":[2147483647,0,0,1,1,2,2,4,4,5,5,8,8,10,10],"right_children":[2,4,6,-1,8,10,-1,-1,12,-1,14,-1,-1,-1,-1],"split_conditions":[2.7E1,9E0,4.5E1,-1.4455471E-3,1.1E1,3.8E1,1.7896475E-2,2.5376016E-2,1.5E1,8.736567E-3,4.4E1,-1.414457E-2,-0E0,-7.4530445E-4,4.2026318E-4],"split_indices":[1,1,1,0,1,1,0,0,1,0,1,0,0,0,0],"split_type":[0,0,0,0,0,0,0,0,0,0,0,0,0,0,0],"sum_hessian":[8E3,7.14E3,8.6E2,6.601E3,5.39E2,6.54E2,2.06E2,1.31E2,4.08E2,4.49E2,2.05E2,1.51E2,2.57E2,5.9E1,1.46E2],"tree_param":{"num_deleted":"0","num_feature":"2","num_nodes":"15","size_leaf_vector":"1"}},{"base_weights":[-0E0,-1.0254643E-2,9.16423E-2,-1.3009992E-3,4.9325186E-3,5.426721E-2,1.6115459E-2,2.2857636E-2,-4.2808115E-2,7.864847E-3,-0E0,-1.273943E-2,-0E0,-6.719701E-4,3.7849712E-4],"categories":[],"categories_nodes":[],"categories_segments":[],"categories_sizes":[],"default_left":[0,0,0,0,0,0,0,0,0,0,0,0,0,0,0],"id":59,"left_children":[1,3,5,-1,7,9,-1,-1,11,-1,13,-1,-1,-1,-1],"loss_changes":[7.9818773E0,3.7966067E-1,7.393932E-2,0E0,7.632993E0,8.545829E-1,0E0,0E0,1.7173483E0,0E0,4.8151854E-3,0E0,0E0,0E0,0E0],"parents":[2147483647,0,0,1,1,2,2,4,4,5,5,8,8,10,10],"right_children":[2,4,6,-1,8,10,-1,-1,12,-1,14,-1,-1,-1,-1],"split_conditions":[2.7E1,9E0,4.5E1,-1.3009992E-3,1.1E1,3.8E1,1.6115459E-2,2.2857636E-2,1.5E1,7.864847E-3,4.4E1,-1.273943E-2,-0E0,-6.719701E-4,3.7849712E-4],"split_indices":[1,1,1,0,1,1,0,0,1,0,1,0,0,0,0],"split_type":[0,0,0,0,0,0,0,0,0,0,0,0,0,0,0],"sum_hessian":[8E3,7.14E3,8.6E2,6.601E3,5.39E2,6.54E2,2.06E2,1.31E2,4.08E2,4.49E2,2.05E2,1.51E2,2.57E2,5.9E1,1.46E2],"tree_param":{"num_deleted":"0","num_feature":"2","num_nodes":"15","size_leaf_vector":"1"}},{"base_weights":[-0E0,1.7027491E-1,-2.3359362E-2,4.181935E-2,1.3074541E-1,-9.1535114E-2,-0E0,3.499779E-2,1.5833212E-2,8.883618E-2,-1.1167384E-2,8.142574E-3,-0E0,-9.90707E-2,5.2029714E-3,3.2133866E-2,-3.3293494E-3],"categories":[],"categories_nodes":[],"categories_segments":[],"categories_sizes":[],"default_left":[0,0,0,0,0,0,0,0,0,0,0,0,0,0,0,0,0],"id":60,"left_children":[1,3,5,-1,7,-1,9,11,-1,-1,13,-1,-1,-1,15,-1,-1],"loss_changes":[3.2757362E1,4.236437E0,1.4280502E2,0E0,4.3046188E-1,0E0,6.4765915E1,1.1053715E0,0E0,0E0,1.1809923E2,0E0,0E0,0E0,8.357895E1,0E0,0E0],"parents":[2147483647,0,0,1,1,2,2,4,4,6,6,7,7,10,10,14,14],"right_children":[2,4,6,-1,8,-1,10,12,-1,-1,14,-1,-1,-1,16,-1,-1],"split_conditions":[4.664E1,3.092E1,5E1,4.181935E-2,3.514E1,-9.1535114E-2,5.148E1,3.303E1,1.5833212E-2,8.883618E-2,5.347E1,8.142574E-3,-0E0,-9.90707E-2,6.876E1,3.2133866E-2,-3.3293494E-3],"split_indices":[0,0,0,0,0,0,0,0,0,0,0,0,0,0,0,0,0],"split_type":[0,0,0,0,0,0,0,0,0,0,0,0,0,0,0,0,0],"sum_hessian":[8E3,9.97E2,7.003E3,1.01E2,8.96E2,1.74E2,6.829E3,2.82E2,6.14E2,8E1,6.749E3,2.18E2,6.4E1,1.2E2,6.629E3,7.47E2,5.882E3],"tree_param":{"num_deleted":"0","num_feature":"2","num_nodes":"17","size_leaf_vector":"1"}},{"base_weights":[-0E0,1.9505465E-2,-1.9121533E-2,-6.7702495E-3,1.5533733E-1,1.9239085E-2,-6.585007E-2,4.634745E-2,5.5405997E-2,-0E0,3.430365E-2,-1.9927377E-1,1.4110555E-1,2.9506625E-3,-6.9044404E-2,1.0653362E-2,-1.6104963E-1,2.0030698E-2,-0E0],"categories":[],"categories_nodes":[],"categories_segments":[],"categories_sizes":[],"default_left":[0,0,0,0,0,0,0,0,0,0,0,0,0,0,0,0,0,0,0],"id":61,"left_children":[1,3,-1,5,7,9,-1,-1,11,13,-1,15,17,-1,-1,-1,-1,-1,-1],"loss_changes":[2.8661915E1,2.7519587E1,0E0,1.0897623E2,3.3091457E1,3.409493E1,0E0,0E0,2.050847E1,1.08045425E2,0E0,1.0756551E2,6.773695E0,0E0,0E0,0E0,0E0,0E0,0E0],"parents":[2147483647,0,0,1,1,3,3,4,4,5,5,8,8,9,9,11,11,12,12],"right_children":[2,4,-1,6,8,10,-1,-1,12,14,-1,16,18,-1,-1,-1,-1,-1,-1],"split_conditions":[1.8643E2,1.4629E2,-1.9121533E-2,1.4335E2,1.5418E2,1.3964E2,-6.585007E-2,4.634745E-2,1.5786E2,1.3893E2,3.430365E-2,1.5511E2,1.7556E2,2.9506625E-3,-6.9044404E-2,1.0653362E-2,-1.6104963E-1,2.0030698E-2,-0E0],"split_indices":[0,0,0,0,0,0,0,0,0,0,0,0,0,0,0,0,0,0,0],"split_type":[0,0,0,0,0,0,0,0,0,0,0,0,0,0,0,0,0,0,0],"sum_hessian":[8E3,7.293E3,7.07E2,6.05E3,1.243E3,5.804E3,2.46E2,2.79E2,9.64E2,5.497E3,3.07E2,2.13E2,7.51E2,5.281E3,2.16E2,1.7E2,4.3E1,5.41E2,2.1E2],"tree_param":{"num_deleted":"0","num_feature":"2","num_nodes":"19","size_leaf_vector":"1"}},{"base_weights":[-0E0,1.5157521E-1,-2.0633237E-2,3.738622E-2,1.14981174E-1,-8.272728E-2,-0E0,2.5785256E-2,1.3957867E-1,7.977082E-2,-9.534342E-3,7.0383246E-3,-0E0,2.0151244E-2,6.6244155E-2,-8.953813E-2,5.1258407E-3,-0E0,7.4785687E-3,2.8630083E-2,-2.8925498E-3],"categories":[],"categories_nodes":[],"categories_segments":[],"categories_sizes":[],"default_left":[0,0,0,0,0,0,0,0,0,0,0,0,0,0,0,0,0,0,0,0,0],"id":62,"left_children":[1,3,5,-1,7,-1,9,11,13,-1,15,-1,-1,-1,17,-1,19,-1,-1,-1,-1],"loss_changes":[2.591091E1,3.1866894E0,1.16784744E2,0E0,3.1077576E-1,0E0,5.2157005E1,8.967216E-1,1.0234356E-1,0E0,9.6567215E1,0E0,0E0,0E0,1.6171455E-2,0E0,6.60602E1,0E0,0E0,0E0,0E0],"parents":[2147483647,0,0,1,1,2,2,4,4,6,6,7,7,8,8,10,10,14,14,16,16],"right_children":[2,4,6,-1,8,-1,10,12,14,-1,16,-1,-1,-1,18,-1,20,-1,-1,-1,-1],"split_conditions":[4.664E1,3.092E1,5E1,3.738622E-2,3.514E1,-8.272728E-2,5.148E1,3.303E1,4.006E1,7.977082E-2,5.347E1,7.0383246E-3,-0E0,2.0151244E-2,4.159E1,-8.953813E-2,6.876E1,-0E0,7.4785687E-3,2.8630083E-2,-2.8925498E-3],"split_indices":[0,0,0,0,0,0,0,0,0,0,0,0,0,0,0,0,0,0,0,0,0],"split_type":[0,0,0,0,0,0,0,0,0,0,0,0,0,0,0,0,0,0,0,0,0],"sum_hessian":[8E3,9.97E2,7.003E3,1.01E2,8.96E2,1.74E2,6.829E3,2.82E2,6.14E2,8E1,6.749E3,2.18E2,6.4E1,2.58E2,3.56E2,1.2E2,6.629E3,7.4E1,2.82E2,7.47E2,5.882E3],"tree_param":{"num_deleted":"0","num_feature":"2","num_nodes":"21","size_leaf_vector":"1"}},{"base_weights":[-0E0,1.7595194E-2,-1.692324E-2,-6.584399E-3,1.4323276E-1,1.651969E-2,-5.9003647E-2,4.2017456E-2,5.2365463E-2,-0E0,3.1172732E-2,-1.724974E-1,1.2958394E-1,2.5401888E-3,-6.1883867E-2,9.881801E-3,-1.4502801E-1,1.8320054E-2,-0E0],"categories":[],"categories_nodes":[],"categories_segments":[],"categories_sizes":[],"default_left":[0,0,0,0,0,0,0,0,0,0,0,0,0,0,0,0,0,0,0],"id":63,"left_children":[1,3,-1,5,7,9,-1,-1,11,13,-1,15,17,-1,-1,-1,-1,-1,-1],"loss_changes":[2.253499E1,2.3525616E1,0E0,8.731316E1,2.6557796E1,2.8345385E1,0E0,0E0,1.634906E1,8.651084E1,0E0,8.7847916E1,5.563261E0,0E0,0E0,0E0,0E0,0E0,0E0],"parents":[2147483647,0,0,1,1,3,3,4,4,5,5,8,8,9,9,11,11,12,12],"right_children":[2,4,-1,6,8,10,-1,-1,12,14,-1,16,18,-1,-1,-1,-1,-1,-1],"split_conditions":[1.8643E2,1.4629E2,-1.692324E-2,1.4335E2,1.5418E2,1.3964E2,-5.9003647E-2,4.2017456E-2,1.5786E2,1.3893E2,3.1172732E-2,1.5511E2,1.7556E2,2.5401888E-3,-6.1883867E-2,9.881801E-3,-1.4502801E-1,1.8320054E-2,-0E0],"split_indices":[0,0,0,0,0,0,0,0,0,0,0,0,0,0,0,0,0,0,0],"split_type":[0,0,0,0,0,0,0,0,0,0,0,0,0,0,0,0,0,0,0],"sum_hessian":[8E3,7.293E3,7.07E2,6.05E3,1.243E3,5.804E3,2.46E2,2.79E2,9.64E2,5.497E3,3.07E2,2.13E2,7.51E2,5.281E3,2.16E2,1.7E2,4.3E1,5.41E2,2.1E2],"tree_param":{"num_deleted":"0","num_feature":"2","num_nodes":"19","size_leaf_vector":"1"}},{"base_weights":[-0E0,-9.27567E-3,8.657894E-3,-4.42336E-3,-6.468234E-2,-1.1910253E-3,2.9431064E-2,-1.4643787E-2,-0E0],"categories":[],"categories_nodes":[],"categories_segments":[],"categories_sizes":[],"default_left":[0,0,0,0,0,0,0,0,0],"id":64,"left_children":[1,3,-1,5,7,-1,-1,-1,-1],"loss_changes":[7.0683775E0,1.2285174E0,0E0,1.2238457E1,1.548319E0,0E0,0E0,0E0,0E0],"parents":[2147483647,0,0,1,1,3,3,4,4],"right_children":[2,4,-1,6,8,-1,-1,-1,-1],"split_conditions":[2.7E1,1.1E1,8.657894E-3,9E0,1.5E1,-1.1910253E-3,2.9431064E-2,-1.4643787E-2,-0E0],"split_indices":[1,1,0,1,1,0,0,0,0],"split_type":[0,0,0,0,0,0,0,0,0],"sum_hessian":[8E3,7.14E3,8.6E2,6.732E3,4.08E2,6.601E3,1.31E2,1.51E2,2.57E2],"tree_param":{"num_deleted":"0","num_feature":"2","num_nodes":"9","size_leaf_vector":"1"}},{"base_weights":[-0E0,-8.404881E-3,7.793141E-3,-3.8282147E-3,-5.9276003E-2,-1.0719312E-3,2.6510252E-2,-1.3189054E-2,-0E0],"categories":[],"categories_nodes":[],"categories_segments":[],"categories_sizes":[],"default_left":[0,0,0,0,0,0,0,0,0],"id":65,"left_children":[1,3,-1,5,7,-1,-1,-1,-1],"loss_changes":[5.7335706E0,1.0312996E0,0E0,9.936792E0,1.2069768E0,0E0,0E0,0E0,0E0],"parents":[2147483647,0,0,1,1,3,3,4,4],"right_children":[2,4,-1,6,8,-1,-1,-1,-1],"split_conditions":[2.7E1,1.1E1,7.793141E-3,9E0,1.5E1,-1.0719312E-3,2.6510252E-2,-1.3189054E-2,-0E0],"split_indices":[1,1,0,1,1,0,0,0,0],"split_type":[0,0,0,0,0,0,0,0,0],"sum_hessian":[8E3,7.14E3,8.6E2,6.732E3,4.08E2,6.601E3,1.31E2,1.51E2,2.57E2],"tree_param":{"num_deleted":"0","num_feature":"2","num_nodes":"9","size_leaf_vector":"1"}},{"base_weights":[-0E0,-7.621449E-3,7.014711E-2,-3.2930938E-3,-5.4406766E-2,3.6244802E-2,1.2877449E-2,-9.6475455E-4,2.387931E-2,-1.1878844E-2,-0E0,7.248325E-3,-0E0,-4.730403E-3,-0E0],"categories":[],"categories_nodes":[],"categories_segments":[],"categories_sizes":[],"default_left":[0,0,0,0,0,0,0,0,0,0,0,0,0,0,0],"id":66,"left_children":[1,3,5,7,9,11,-1,-1,-1,-1,-1,-1,13,-1,-1],"loss_changes":[4.6514473E0,8.6889946E-1,5.6466103E-2,8.06839E0,9.341464E-1,1.5037556E0,0E0,0E0,0E0,0E0,0E0,0E0,1.3426025E-1,0E0,0E0],"parents":[2147483647,0,0,1,1,2,2,3,3,4,4,5,5,12,12],"right_children":[2,4,6,8,10,12,-1,-1,-1,-1,-1,-1,14,-1,-1],"split_conditions":[2.7E1,1.1E1,4.5E1,9E0,1.5E1,3.8E1,1.2877449E-2,-9.6475455E-4,2.387931E-2,-1.1878844E-2,-0E0,7.248325E-3,4.4E1,-4.730403E-3,-0E0],"split_indices":[1,1,1,1,1,1,0,0,0,0,0,0,1,0,0],"split_type":[0,0,0,0,0,0,0,0,0,0,0,0,0,0,0],"sum_hessian":[8E3,7.14E3,8.6E2,6.732E3,4.08E2,6.54E2,2.06E2,6.601E3,1.31E2,1.51E2,2.57E2,4.49E2,2.05E2,5.9E1,1.46E2],"tree_param":{"num_deleted":"0","num_feature":"2","num_nodes":"15","size_leaf_vector":"1"}},{"base_weights":[-0E0,-6.9166096E-3,6.361046E-3,-2.8119509E-3,-5.002113E-2,-8.6830306E-4,2.1509474E-2,-1.0698763E-2,-0E0],"categories":[],"categories_nodes":[],"categories_segments":[],"categories_sizes":[],"default_left":[0,0,0,0,0,0,0,0,0],"id":67,"left_children":[1,3,-1,5,7,-1,-1,-1,-1],"loss_changes":[3.825478E0,7.3498094E-1,0E0,6.5515976E0,7.164811E-1,0E0,0E0,0E0,0E0],"parents":[2147483647,0,0,1,1,3,3,4,4],"right_children":[2,4,-1,6,8,-1,-1,-1,-1],"split_conditions":[2.7E1,1.1E1,6.361046E-3,9E0,1.5E1,-8.6830306E-4,2.1509474E-2,-1.0698763E-2,-0E0],"split_indices":[1,1,0,1,1,0,0,0,0],"split_type":[0,0,0,0,0,0,0,0,0],"sum_hessian":[8E3,7.14E3,8.6E2,6.732E3,4.08E2,6.601E3,1.31E2,1.51E2,2.57E2],"tree_param":{"num_deleted":"0","num_feature":"2","num_nodes":"9","size_leaf_vector":"1"}},{"base_weights":[-0E0,-6.2823067E-3,5.7256836E-2,-2.379151E-3,-4.6071216E-2,2.5351055E-2,1.0962895E-2,-7.8148424E-4,1.937482E-2,-9.635924E-3,-0E0,5.89044E-3,-0E0,-4.890763E-3,-0E0],"categories":[],"categories_nodes":[],"categories_segments":[],"categories_sizes":[],"default_left":[0,0,0,0,0,0,0,0,0,0,0,0,0,0,0],"id":68,"left_children":[1,3,5,7,9,11,-1,-1,-1,-1,-1,-1,13,-1,-1],"loss_changes":[3.1044917E0,6.244005E-1,8.612871E-2,5.320149E0,5.4320985E-1,1.1404251E0,0E0,0E0,0E0,0E0,0E0,0E0,1.4351736E-1,0E0,0E0],"parents":[2147483647,0,0,1,1,2,2,3,3,4,4,5,5,12,12],"right_children":[2,4,6,8,10,12,-1,-1,-1,-1,-1,-1,14,-1,-1],"split_conditions":[2.7E1,1.1E1,4.5E1,9E0,1.5E1,3.8E1,1.0962895E-2,-7.8148424E-4,1.937482E-2,-9.635924E-3,-0E0,5.89044E-3,4.4E1,-4.890763E-3,-0E0],"split_indices":[1,1,1,1,1,1,0,0,0,0,0,0,1,0,0],"split_type":[0,0,0,0,0,0,0,0,0,0,0,0,0,0,0],"sum_hessian":[8E3,7.14E3,8.6E2,6.732E3,4.08E2,6.54E2,2.06E2,6.601E3,1.31E2,1.51E2,2.57E2,4.49E2,2.05E2,5.9E1,1.46E2],"tree_param":{"num_deleted":"0","num_feature":"2","num_nodes":"15","size_leaf_vector":"1"}},{"base_weights":[-0E0,-5.7115406E-3,5.189716E-2,-1.9899015E-3,-4.25137E-2,2.1753518E-2,9.871934E-3,-7.0334243E-4,1.7452015E-2,-8.678671E-3,-0E0,5.3026797E-3,-0E0,-4.4098697E-3,-0E0],"categories":[],"categories_nodes":[],"categories_segments":[],"categories_sizes":[],"default_left":[0,0,0,0,0,0,0,0,0,0,0,0,0,0,0],"id":69,"left_children":[1,3,5,7,9,11,-1,-1,-1,-1,-1,-1,13,-1,-1],"loss_changes":[2.551896E0,5.329418E-1,8.331299E-3,4.3202953E0,4.0562123E-1,9.5537233E-1,0E0,0E0,0E0,0E0,0E0,0E0,1.16681695E-1,0E0,0E0],"parents":[2147483647,0,0,1,1,2,2,3,3,4,4,5,5,12,12],"right_children":[2,4,6,8,10,12,-1,-1,-1,-1,-1,-1,14,-1,-1],"split_conditions":[2.7E1,1.1E1,4.5E1,9E0,1.5E1,3.8E1,9.871934E-3,-7.0334243E-4,1.7452015E-2,-8.678671E-3,-0E0,5.3026797E-3,4.4E1,-4.4098697E-3,-0E0],"split_indices":[1,1,1,1,1,1,0,0,0,0,0,0,1,0,0],"split_type":[0,0,0,0,0,0,0,0,0,0,0,0,0,0,0],"sum_hessian":[8E3,7.14E3,8.6E2,6.732E3,4.08E2,6.54E2,2.06E2,6.601E3,1.31E2,1.51E2,2.57E2,4.49E2,2.05E2,5.9E1,1.46E2],"tree_param":{"num_deleted":"0","num_feature":"2","num_nodes":"15","size_leaf_vector":"1"}},{"base_weights":[-0E0,1.3773674E-1,-1.913923E-2,3.3973288E-2,1.03465445E-1,-7.521709E-2,-0E0,1.8342592E-2,1.262074E-2,7.213445E-2,-9.014841E-3,5.670532E-3,-0E0,-8.213862E-2,4.3043075E-3,2.585502E-2,-2.6322962E-3],"categories":[],"categories_nodes":[],"categories_segments":[],"categories_sizes":[],"default_left":[0,0,0,0,0,0,0,0,0,0,0,0,0,0,0,0,0],"id":70,"left_children":[1,3,5,-1,7,-1,9,11,-1,-1,13,-1,-1,-1,15,-1,-1],"loss_changes":[2.14991E1,2.4416924E0,9.6442535E1,0E0,2.8865147E-1,0E0,4.2695923E1,6.0897756E-1,0E0,0E0,8.121E1,0E0,0E0,0E0,5.395594E1,0E0,0E0],"parents":[2147483647,0,0,1,1,2,2,4,4,6,6,7,7,10,10,14,14],"right_children":[2,4,6,-1,8,-1,10,12,-1,-1,14,-1,-1,-1,16,-1,-1],"split_conditions":[4.664E1,3.092E1,5E1,3.3973288E-2,3.514E1,-7.521709E-2,5.148E1,3.303E1,1.262074E-2,7.213445E-2,5.347E1,5.670532E-3,-0E0,-8.213862E-2,6.876E1,2.585502E-2,-2.6322962E-3],"split_indices":[0,0,0,0,0,0,0,0,0,0,0,0,0,0,0,0,0],"split_type":[0,0,0,0,0,0,0,0,0,0,0,0,0,0,0,0,0],"sum_hessian":[8E3,9.97E2,7.003E3,1.01E2,8.96E2,1.74E2,6.829E3,2.82E2,6.14E2,8E1,6.749E3,2.18E2,6.4E1,1.2E2,6.629E3,7.47E2,5.882E3],"tree_param":{"num_deleted":"0","num_feature":"2","num_nodes":"17","size_leaf_vector":"1"}},{"base_weights":[-0E0,1.5899539E-2,-1.576771E-2,-6.4385403E-3,1.3258107E-1,1.468767E-2,-5.43407E-2,3.8314562E-2,4.937832E-2,-0E0,2.8828843E-2,-1.5703817E-1,1.2135139E-1,2.2607225E-3,-5.6655426E-2,8.565575E-3,-1.3239388E-1,1.6974498E-2,-0E0],"categories":[],"categories_nodes":[],"categories_segments":[],"categories_sizes":[],"default_left":[0,0,0,0,0,0,0,0,0,0,0,0,0,0,0,0,0,0,0],"id":71,"left_children":[1,3,-1,5,7,9,-1,-1,11,13,-1,15,17,-1,-1,-1,-1,-1,-1],"loss_changes":[1.9446232E1,2.0273663E1,0E0,7.393838E1,2.159033E1,2.4345648E1,0E0,0E0,1.3998644E1,7.235303E1,0E0,7.310096E1,4.5427656E0,0E0,0E0,0E0,0E0,0E0,0E0],"parents":[2147483647,0,0,1,1,3,3,4,4,5,5,8,8,9,9,11,11,12,12],"right_children":[2,4,-1,6,8,10,-1,-1,12,14,-1,16,18,-1,-1,-1,-1,-1,-1],"split_conditions":[1.8643E2,1.4629E2,-1.576771E-2,1.4335E2,1.5418E2,1.3964E2,-5.43407E-2,3.8314562E-2,1.5786E2,1.3893E2,2.8828843E-2,1.5511E2,1.7556E2,2.2607225E-3,-5.6655426E-2,8.565575E-3,-1.3239388E-1,1.6974498E-2,-0E0],"split_indices":[0,0,0,0,0,0,0,0,0,0,0,0,0,0,0,0,0,0,0],"split_type":[0,0,0,0,0,0,0,0,0,0,0,0,0,0,0,0,0,0,0],"sum_hessian":[8E3,7.293E3,7.07E2,6.05E3,1.243E3,5.804E3,2.46E2,2.79E2,9.64E2,5.497E3,3.07E2,2.13E2,7.51E2,5.281E3,2.16E2,1.7E2,4.3E1,5.41E2,2.1E2],"tree_param":{"num_deleted":"0","num_feature":"2","num_nodes":"19","size_leaf_vector":"1"}},{"base_weights":[-0E0,1.2303663E-1,-1.6865645E-2,3.0385403E-2,9.119002E-2,-6.7963146E-2,-0E0,1.172168E-2,1.1134994E-1,6.478678E-2,-7.654632E-3,4.881019E-3,-0E0,1.653041E-2,4.388362E-2,-7.421686E-2,4.2433827E-3,-0E0,5.0486475E-3,2.30472E-2,-2.2821592E-3],"categories":[],"categories_nodes":[],"categories_segments":[],"categories_sizes":[],"default_left":[0,0,0,0,0,0,0,0,0,0,0,0,0,0,0,0,0,0,0,0,0],"id":72,"left_children":[1,3,5,-1,7,-1,9,11,13,-1,15,-1,-1,-1,17,-1,19,-1,-1,-1,-1],"loss_changes":[1.7100023E1,1.7687559E0,7.884001E1,0E0,2.0504045E-1,0E0,3.439385E1,4.8286957E-1,1.3952255E-1,0E0,6.637239E1,0E0,0E0,0E0,3.3833504E-2,0E0,4.26764E1,0E0,0E0,0E0,0E0],"parents":[2147483647,0,0,1,1,2,2,4,4,6,6,7,7,8,8,10,10,14,14,16,16],"right_children":[2,4,6,-1,8,-1,10,12,14,-1,16,-1,-1,-1,18,-1,20,-1,-1,-1,-1],"split_conditions":[4.664E1,3.092E1,5E1,3.0385403E-2,3.514E1,-6.7963146E-2,5.148E1,3.303E1,4.006E1,6.478678E-2,5.347E1,4.881019E-3,-0E0,1.653041E-2,4.159E1,-7.421686E-2,6.876E1,-0E0,5.0486475E-3,2.30472E-2,-2.2821592E-3],"split_indices":[0,0,0,0,0,0,0,0,0,0,0,0,0,0,0,0,0,0,0,0,0],"split_type":[0,0,0,0,0,0,0,0,0,0,0,0,0,0,0,0,0,0,0,0,0],